-- Trained for 500?? epochs with learning rate alpha = 0.1 --

SIZES: 127 127 26
LAYER 0
-0.09134532578907523 -0.10985137329446208 0.0915013227706136 -0.15693434077382537 0.0881372420025321 0.0013924177904007374 0.05248136848483873 0.07758938701594854 -0.06860104787691941 0.0918253534935395 0.08597748292311327 -0.028523386720388625 0.11183865189680652 0.038248949253595045 -0.04104464643677416 0.04179179844264384 -0.06999129254843536 0.10807523061677839 0.07575025488947804 0.10871676874577008 -0.16048840380276877 -0.07831725198797447 0.02640441319543888 0.11589338531891692 -0.08957567914267393 0.04527441712677866 -0.013487128047889322 0.06589478309398615 -0.035367377544997324 0.023031340727210713 0.09174136012457139 -0.009444902501878865 -0.004614978465973223 -0.0916439015320868 0.08176707523627698 0.07893614045350082 -0.034450249728293025 0.10313447269156957 -0.027265470825232202 0.09199168466481054 0.0674390671147084 0.07116402508116122 0.06211272716984626 -0.051100670438088754 0.047593564182111525 -0.05163975687635604 0.1156354854122831 -0.025936427292759513 -0.18901617892567438 0.08222386744070559 -0.07573035069285876 0.05663779019020135 0.200117715477929 0.010879391828740415 0.00024227207963830398 0.2217603753414005 0.10711878525023025 -0.06594806329607907 0.055813923189402904 -0.08949968545043463 -0.1534176982507492 -0.053759111858217794 -0.03271460598304576 0.06504555523841843 -0.003316066917797863 -0.006164874732791823 -0.10364760761548615 0.009789164506750776 -0.059363837281472806 -0.09463906275228362 -0.0896063842760187 0.05376637278453458 -0.030026911827857647 0.02350288261170419 0.01555659448278671 0.057969672560974926 -0.09243878709998474 -0.0362150319885515 0.018842051521936697 0.013277289398875904 0.09162526368370834 -0.05612017069988632 0.15069418110843988 -0.060213038479068365 -0.07606040151609933 -0.04800672952603705 -0.1967891844557476 -0.03565917046188686 0.07238535162042882 0.07723378714289603 0.1219276324660947 0.05662291209079156 0.011001255958320065 0.3103872779782302 0.04941265799893964 0.08148368522790812 0.11081279063985316 0.012347531030548904 -0.06582008590056176 -0.06301149121234369 0.0825984484012397 0.061264707592478033 -0.06173271736328031 0.04824866874270697 -0.11860570228308084 -0.09852334513116563 -0.08604208276482889 0.051591583160111906 -0.05106493620281766 0.12487595917587829 -0.06171124865910054 -0.06844729503371604 -0.07506474601512152 -0.11863601944916946 0.07862307779947132 0.06035272222459541 -0.09554428157673457 -0.059073494908160766 -0.04390228127159073 -0.22558980674464693 0.08405818214209276 0.07554181279354895 0.05293083585358708 -0.005483216413715029 0.06662010776783209 -0.16106437855994152 0.13093729368509072
-0.08629300171410241 0.04779842419573764 0.1866323103612826 -0.017830044309978258 0.0852544771916889 -0.009054396569589937 0.062394100458201936 0.0406422041797771 -0.018435836865556724 0.0876859812156294 0.07940049925791773 -0.03861778039678293 -0.0618666522064626 0.039249993295975956 -0.04768428440151743 0.02529197100059384 -0.05461000945440995 0.09547421035127636 0.06045801103774018 0.12021164035151109 -0.05423462089979935 -0.06251886564828621 0.024106115260956004 0.12486349914105771 -0.08672264975249483 0.02128213039238235 0.0032050321310216887 0.03493557765302564 -0.031191837860083966 0.01750468852157341 0.0881029282779411 -0.00351918589777404 -0.1139448458281572 -0.08765101362746804 -0.03930421951707859 0.06938023935036616 -0.06865357388714483 0.10320681228994931 -0.030590316396482905 0.08658062368967513 0.050489375249386285 0.02263071663183561 0.04585442931494105 -0.035571929896476506 0.07888819351585759 -0.09129487246350378 0.006106789387179849 -0.020720297922794707 -0.1567441809009677 0.01210046492941376 -0.06447747026927506 0.031018642576795666 0.1447597443870448 0.013903859234189105 0.014089392241424756 0.2039349178707188 0.10267531728092436 -0.051035825994375526 0.04524161485806404 -0.0834517875919329 -0.11332216111683395 -0.03676420387071376 -0.08479116426773492 0.05042532183297364 0.07330451124718597 -0.025069001111665237 -0.10561939944375094 0.036944343023581 -0.04202905651524403 -0.024616932743350126 -0.08242694506015678 0.05763997392034757 -0.013600288071675867 0.03475969613379125 0.021056942034510095 0.048045547321686276 -0.011984747923483382 -0.06359946166628973 0.006286311733999693 0.03675499529920035 0.08872443255310057 -0.04489218344218334 0.11246968768334721 -0.07527086746944038 -0.06633935311472113 -0.18814980031408254 -0.13433000170405374 -0.01886755232924212 0.05734791228777008 -0.061910738961250385 0.06416614490949707 0.0384769394733566 0.1023529033808682 0.16250092515311246 0.06498493910533722 0.07512949392585068 0.09940334377014648 -0.07080266407117644 -0.05335661391645277 -0.04684871913132879 0.07143746310183176 0.02746610394701328 -0.05068481447280122 0.047814610751928534 -0.11117162854537381 -0.019072690304974476 -0.07714265183184901 0.10868932213375358 -0.020142288493534787 0.0877714830402226 -0.05083032606634257 -0.05455378025890304 -0.011323789122565623 -0.05515863977894214 0.21287230317048794 0.05683737220820206 -0.09374712440436031 0.09264673009034972 -0.06229927947128876 -0.08618265342599958 -0.019843780937198952 0.0804831575055048 0.07461624152481502 -0.09712828005826595 0.045437961626633716 -0.06817721107250971 0.1347006145262823
-0.06651976586904963 0.09672960424353656 -0.09854379660508043 -0.21712594273700322 0.06396116054381332 0.0383900739101262 0.024455092179654758 -0.07116835843184503 0.12554620260180724 0.06840067297692089 0.05793809144333108 -0.07229825265475692 -0.16835429759936726 0.04404759776177074 -0.03700020919692452 -0.055263114593845634 -0.046749258285006236 0.10154641629290077 0.04449905141891907 -0.19767506628682938 -0.043513191557116214 -0.035618009406508964 -0.06091842288255928 -0.030603171084081403 -0.06534322093560084 0.030578062058859014 -0.07763195568004681 0.027859432868949967 -0.06924294551045446 -0.138352536986931 0.0667502436173823 -0.06591712222857216 -0.11803017484912474 -0.06556718104075092 -0.09384376175275837 0.05112296868318704 -0.04002950277222299 0.07789251777561933 0.019805591932631424 0.06732178021334566 0.0326455424772471 -0.20981004876240048 0.03911805747188947 -0.02875112518025979 -0.031709271619997356 0.03281511108280096 -0.11694695771696927 0.03349324693048425 0.20979926267349816 0.02102291566061334 -0.050739174891005226 0.04942629462138061 -0.031512829318488256 0.028430000562215545 -0.008245792008738349 -0.11638869232954405 -0.2120075897394772 -0.02775732228647133 0.042938337923653945 -0.06124848902965195 0.19699171334386464 -0.0007365191140143603 -0.21970573564242998 0.042222660149251495 0.11726334737345943 -0.14883181866180833 -0.07950544550356126 -0.0849182177777224 -0.021297824449840626 -0.11235997397815256 -0.06498954494702947 0.05595284788171243 -0.06905294600915708 0.07094137090789299 0.004877350792319144 0.039863016779793724 0.02704221687842377 0.039666944710770785 -0.06238072871136969 0.0315029309462432 0.06821787456625981 -0.04297009897050504 -0.12501686458211006 0.08958419108573512 -0.054687693123887444 0.08445360087661623 -0.019347875907213388 0.01636819795591739 -0.014556565695334027 0.024769082013089305 0.035385383654745216 0.03552782775042585 0.14669840329617953 -0.23304333802862365 0.0046136090479210355 0.05912102940495379 -0.06882339359228241 0.05488264049031298 -0.03927946044575645 -0.028401558408808644 0.05810080860780298 0.038948068833633366 -0.04511740580347114 -0.033762115449306275 0.01494973907828403 -0.16257457528043703 -0.05698688539889782 -0.10390642639134344 0.05385956359236886 -0.061524071520159936 -0.042419305591744526 -0.038999338711931904 0.025222634693100744 0.0937309174902772 -0.04544221348645473 -0.09097019774505367 -0.07271010788749521 0.09285470925210472 -0.003960496519176869 0.11506851156775061 -0.015416549849310963 -0.035633176635550844 0.011905159927103014 -0.005105926709077244 -0.15402478449660856 0.14422481010620256 0.12185549589369835
-0.12609169521157026 0.054218082204034165 -0.08858144514392471 -0.1391411240566651 0.12441903753409533 -0.04784789138759519 -0.057946943979799485 -0.06858439674716083 -0.01234070433141666 0.12666755344986189 0.12285891653900002 -0.03222819866696192 -0.1863280985806874 0.09821215947783835 0.0022642464408074983 -0.07182565398811351 -0.11628170300674673 0.04683178504007485 0.11251396521769752 -0.18278441955043112 -0.09050317891827736 -0.06817213978064394 -0.10414862592375991 -0.06983929727699059 -0.12390152153898609 -0.013373471689196186 -0.0183641140450237 0.0492185120621116 -0.11136186436400324 -0.09483212960231671 0.12459922089915915 -0.01360735336495321 -0.11139057716993911 -0.12364953384502736 -0.06196435964174588 0.11713982201962418 0.019610765308863725 0.12798092317003715 -0.0036589166075395117 0.12455910495552933 0.09557576636121928 -0.16846331347635646 0.10431472757730938 -0.042333241453089705 -0.11006558160493714 0.006685062831560737 -0.13144044655784204 -0.05960908637028651 0.07662066652679493 0.01649716253853221 -0.121028878297736 0.08643222304955576 -0.023561152295158913 0.07047103780828361 0.036198329181341034 -0.12165026193970609 -0.17659840256161072 -0.08622172073699898 0.10298015127189472 -0.12257774559705188 0.08811864630347235 -0.02101703826286595 -0.27122825649016713 0.11101431791280894 0.09485049740596395 -0.043443628225493296 -0.12809823144650426 0.04449122524859581 -0.0686476958876979 -0.09370967133995209 -0.1255485179165156 0.0713410507035857 -0.11827838440398813 0.0993549865893899 0.02344652531735672 0.09512143275224966 -0.0039034040466189436 0.12517327121180175 -0.08613892365766264 -0.024338855447240845 0.1262104458378263 -0.09965239290591894 -0.14054008977148486 0.11540962557723204 -0.12271469622076087 0.21140406381871144 0.09656611030013709 0.05690704037292752 0.011436265430314157 -0.032707349097997364 -0.0650619800800808 0.09761268693580705 0.13690439955991882 -0.25045317617550583 -0.08963467786347162 0.12169977801298582 -0.05306410394408496 0.010221869754435621 -0.10687330487332132 -0.07373217468044117 0.12407463406005953 0.07226187427452728 -0.10876693585725294 -0.014666130022472242 0.06125939632497254 -0.027285801975147985 -0.12143507437674518 -0.06207451726226311 0.007677913421057123 -0.05289194476287372 -0.10479734282297024 -0.10680954251004057 -0.04108903403014961 0.10243619188102931 -0.0889404661011945 -0.05061240266584477 -0.1273047624932193 0.06028130361936379 -0.004739409791058322 0.11431650059962596 -0.04843830404852493 -0.042126758615322064 -0.04895163635729092 -0.07135052071985334 -0.026077917070636183 0.15465519798270025 0.15423464961436195
-0.0490895531401392 0.23819225184104137 -0.04899218855289446 -0.042297733729429327 0.04997325844572517 0.043576265468646125 -0.05868791254717885 -0.08954029751451222 -0.010888107716696887 0.05226902042779743 0.04517496036409195 -0.13261291126853353 -0.2886071471493667 0.07029618522225144 -0.08650287694658126 -0.21468002554213356 -0.0261516879807721 0.02067681268531275 0.02483506405631606 -0.30345122333726265 -0.0058214133397127875 -0.03525971525724058 -0.07614204788810205 -0.0824333706399039 -0.051496497985460264 0.026851024177188633 0.005658699172597526 0.00867083020074022 -0.08129143491674047 -0.17352809994966953 0.05189282174944617 -0.08718762406553299 -0.10276993866321464 -0.05017687584342895 -0.2170473896659716 0.03780035505379618 0.07825987553072383 0.060393187538681246 -0.08299434273625152 0.049735610905723156 0.014821156537708147 -0.07386626097506788 0.022978428112206604 -0.012918603163293487 -0.02253039503687439 -0.027254508632747882 -0.2345406296576885 -0.08075320613830261 0.24004357429794537 -0.20696317138228035 -0.041259848216486296 0.04865836095141302 -0.14754030255205508 -0.007119129804578581 0.1587596727812593 -0.28762967850334353 -0.26946037005228884 -0.0020079761582531444 0.03178360018408138 -0.0466241149035067 0.21226430558032644 0.006639535589869888 -0.2801496272907812 0.025382473090109804 0.07379587684035817 -0.07708425381010436 -0.06329168593279448 0.10391892006587593 -0.020643538765516577 -0.06089297211652189 -0.04936516991496213 0.08430399749595799 -0.052789359491301584 0.10089927435318505 0.07279050145293578 0.04709349958648024 0.01800228539441555 0.05046015720181292 -0.13618227711417172 0.045685234858916506 0.05090539996863017 -0.02418141934821767 -0.1176801319713702 -0.001101748025148792 -0.04112151108495257 0.004903742049729662 0.07278890183312406 0.015426302291118557 0.02804585755397165 -0.074853838402474 -0.09480139166632164 0.019256341215709953 0.14822104362690688 -0.3677013573988892 -0.0534078042778437 0.04520056508568986 -0.1514039977701492 -0.06276237597448302 -0.0269435165831901 -0.03987812112780932 0.04130967369861548 0.02354133403130619 -0.028219997510755608 0.014318583225733632 0.10722919603855222 0.05838365591516693 -0.04353870153201198 -0.11167429156720157 0.05041108091130096 -0.2000438640243103 -0.0290947859775234 -0.01942416786528244 0.017946647249671814 0.22622846312724193 -0.02081497925993069 0.0010196536737027266 -0.05506750777417313 0.2788457616478923 -0.05090411238590419 0.06823987224479905 -0.11939433429525957 -0.04837882254504255 -0.06401527713727169 -0.1586004560715194 -0.13782615721946226 0.291729790524604 0.1126078818073295
-0.03668383174402583 0.2603321574571846 0.12629895239021566 -0.06245274267521646 0.039715191347907075 0.18548013108753553 -0.036347550540083796 -0.11359728183436382 0.07379798350849097 0.041986601692208594 0.03131122210215447 -0.14299924945187817 -0.2905978317711012 0.02648731003298009 -0.09953035992590754 -0.22692458760464446 0.005818216000456627 0.00047604798320974724 -0.0003920313015993498 -0.227687506351528 0.13641560616178233 -0.013553591483855109 -0.06148022668690642 0.08623984943357042 -0.03984099581150213 0.05863900230570681 -0.010289933104066113 -0.0064574392477932865 -0.04176322256369325 -0.15086939485411396 0.03918563262192089 -0.052277851965419654 -0.015686045027987042 -0.038914098557519254 -0.2985043239474499 0.01729350001186612 0.10448062771356108 0.056685390361330114 -0.12287343562502598 0.03978971111105392 -0.014760893855598999 0.0799331916659215 -0.016606156964360408 -0.0036517020983430526 0.10818433319198234 0.04942026388670072 -0.29851848925779495 0.019162166725022373 0.37123725281487197 -0.3290183440731601 -0.01465173697472074 -0.005395508636549938 -0.22611838782194252 -0.07140470771996515 0.12891611088639904 -0.30431068057575195 -0.18456566177638375 0.02341761097406446 -0.013277457293213262 -0.03243053911727536 0.3333475072642724 0.027991195692427286 0.10025621634641127 -0.015134904248266114 -0.16542474623392192 -0.18579058856824932 -0.05911091381358439 0.0008948109191561855 0.008409481985118959 0.11263691354418007 -0.03813066595709362 0.050352400308081816 0.01587455615335835 0.05873114323635157 0.04764973907060813 0.012603593699027919 0.06701513914145629 -0.10039553763853458 -0.11319315186083785 0.14532002450051965 0.040768306299428174 0.011006539190601253 -0.17021211727934382 -0.03786826678279042 -0.01475153651146399 -0.3106501285315388 0.08239054420447248 -0.06115059339153596 0.015826970290586946 -0.0631052658744687 -0.04184069119666911 -0.017210056811610124 0.08512952459466112 -0.16528481186830726 0.10724757738959376 0.026990401232818373 -0.21437793968450672 -0.04105957324583147 0.0028524831297720658 -0.004327268759046118 0.019790050507466864 -0.019689596459310614 0.006568522840353453 -0.034900284722050146 0.13527026263330555 -0.04230530648728506 -0.026428745392430453 -0.16813675035635448 0.034747947694357684 -0.2739843138328356 0.0027394137003965225 0.009979907565282555 0.1343871984557681 0.262578261020718 0.07269016631305919 -0.006301721235965203 -0.04650499953676945 0.3238829019151783 -0.0790824236695401 0.018939413153938926 -0.0763175296333613 -0.1027358339192344 0.04246108025889755 -0.05590510190479212 -0.2851855992157651 0.18212709877796626 0.11069041705329555
-0.07765176135263326 0.14242518503086266 0.00956834810849324 -0.01558475668659224 0.08095098971535851 0.29203506052668504 0.12641060232677895 0.0505798178368749 0.11223991615816901 0.08112822953759202 0.08082100550947077 -0.01408611313493826 -0.028696996174097673 0.07342979855650676 -0.0030604270031392186 0.0022464768660711933 -0.07889260233649358 -0.07392441024023032 0.08242781288829974 0.17828055256713707 -0.005852935977599543 -0.09822089438165023 -0.08780055738295012 0.1095840836738046 -0.08142276819951462 0.12103950512630225 -0.08896251951121464 0.10247974717174269 -0.06812252414842465 0.0054409533771572335 0.08010974644022113 -0.09983327601737182 -0.015505355337949217 -0.0806613645506865 -0.19991747596798667 0.07952095665397854 -0.098403399358915 0.08456248618753669 -0.11166457145985302 0.08050723661283883 0.09502860985180772 0.014375706437449638 0.08391024726165708 -0.03802060369536094 0.05490678173778733 -0.02036289794149416 -0.01012713408149476 0.03402299833018621 0.21484163432732628 0.09545720600688996 -0.07893337514765206 0.08550083761113618 0.14159896576575573 -0.04831187488306826 0.08700819423102371 0.11829357147236046 -0.0934539833379115 -0.08853946908027259 0.07294680222011912 -0.0781491412731044 0.17407604991544584 -0.15218486729402322 0.2712298805981937 0.08030568814168604 -0.07291696261830034 -0.18558630426708617 -0.08642493750838842 -0.15257743202528168 -0.09842789107752566 -0.06107983723914653 -0.07913135348152127 0.07106462148174474 -0.06496493602171127 0.03769234977935846 0.030813286124668212 0.0877740102473692 -0.032550547790514216 -0.2675871718166733 -0.04491478026245014 0.10886149666732228 0.0799581261920972 -0.0850959980686108 -0.04030562600883233 0.061550434241207 -0.07433256415659009 -0.05293772271893605 -0.32714001721915315 -0.14582001262287972 0.07624610847802206 -0.011318757376384358 0.20181311816802666 0.09252451082313198 0.11296715337454426 0.19276253295668988 -0.03984865169782709 0.0778280883683236 -0.012136284882221881 0.2495753522506558 -0.0837747843519441 -0.0953282242282835 0.07503781262599836 0.10531682301205071 -0.08065596324337407 -0.023178233610295324 -0.03454576926288584 -0.25626938313582037 -0.08015763739871505 0.08132294390098502 0.024603874361404297 -0.01992270747968814 -0.08780624796395656 -0.08702270017967652 -0.01572417115819333 0.025650376610364258 0.0867476045937085 0.0053103522516056295 -0.08144833049324682 0.09497623366426457 -0.044000020427826476 -0.114905999147928 0.08727690688035658 -0.029509915685098427 0.13850718268560794 -0.045660762111582175 -0.2658551657035122 -0.03839629865457272 0.10798466023082917
-0.06224959104047597 0.02233626113758643 0.07494152637414653 0.017951734861224256 0.06265075783120722 -0.0059909315970164585 0.0191409403383527 -0.009945535866651471 -0.05963298794456348 0.062119368816842414 0.0662747953508847 -0.04377303088208477 -0.027906994173584707 0.05314334195278944 0.019908268260213257 -0.0048319464109290115 -0.07851846159095877 -0.029947094657063696 0.07614276853213002 0.08457282938301318 -0.07435970781975443 -0.07114804423397923 -0.04110457341065075 0.04647218542658539 -0.0636221109360535 0.03736917875712521 -0.0037112573913159696 0.05892892202492549 -0.045584719892100146 0.009797927703021174 0.06362124144576242 -0.029229088622808985 -0.17981125064246084 -0.06349145633399793 0.016295895467611895 0.07053982191303144 -0.033495737829182796 0.059027175216327034 -0.037239847060571346 0.06328966184727487 0.08205842559979062 -0.10381789815148865 0.08028130921900327 -0.026595373566965595 0.0007277183955710327 -0.04844383010669254 0.021436053328371934 -0.04784109354285085 -0.13209799947799136 0.1564728539843804 -0.07331131649987943 0.07548134041764451 0.2987327249473168 0.04631090558172832 0.024695968556929362 0.2129253993936264 -0.014384114332654036 -0.08081408542383672 0.07213940655982873 -0.0647163517226914 -0.09349382488373686 -0.06825043775837486 0.02262933590778668 0.08176196510124868 0.09261790339326154 -0.03693190710624128 -0.058676127673315204 0.032118386289421326 -0.07479201408237349 0.007961874319381146 -0.06206858960310499 0.04664843579901497 -0.06212636188629057 0.02323035647340477 -0.0033069891730748806 0.06770557507811487 -0.07979731914521278 -0.03996267487072501 0.009584992495735628 0.0038354032828189903 0.0632256807539936 -0.07260031908077125 -0.0025422708174971938 0.06765082884645202 -0.06902115998672019 0.020801147080263677 -0.26310787790418155 -0.005835360982531925 0.04356012891071867 0.0026515823227232483 0.1310975563228357 0.07612596432392536 0.1391306854326699 0.16152732886686957 -0.061963330220913715 0.06672719159739877 0.1144412949085014 0.02498993133428894 -0.07660998401732781 -0.06860316795247966 0.0684091937896717 0.07081739621266167 -0.07554335366007081 0.020737862678538572 -0.06818400935029337 -0.10041203221752999 -0.06784354937989256 0.13873650272541826 0.041458240822672444 0.09990987676500018 -0.07411859543736984 -0.08124173466529848 -0.0904509022550542 -0.09397312714173367 0.2407887478374554 -0.07636087138794594 -0.06134711336400013 0.027138818416487017 -0.0003437594620830301 -0.05643158650563207 0.05499702331026482 0.0511816043865016 0.04987549643683496 -0.14845134102008176 0.03716743635250854 -0.10840058599928769 0.046553667002773344
1.5718684978430816e-05 -7.748891724925118e-05 0.00011953761052145833 -0.0009570854023466344 0.0007341293796035392 -0.00023612578704382227 0.0008211628784093943 0.00018559234547176995 0.0005031430230457146 -0.0007976057529233096 -9.475993003821271e-05 0.0008903490740527996 0.00014598120093245568 -0.0007009717921293076 -0.000849402119694757 -0.0007272491047484327 -3.802401345282197e-05 0.0005423783427944318 0.0004445646434766248 -0.000344239933422029 -0.00024427136335057045 -0.00024333894161390074 -0.0005738182635010504 -0.0007163518528891316 -0.00041694558993220655 0.0005648892467660727 3.101594321047382e-05 0.0005238371678615841 0.0008099387064780693 0.0002868024324571639 0.00021957508561893562 -0.000925255707884475 0.0002580300486890897 0.000460025766101939 -0.0009340525542747407 -0.0007382784460845899 0.0005488100663401186 0.00037519193302759657 -0.0005750471971690299 0.0001741344666131041 0.0006654277032834741 0.00025198668011518254 0.0007465716266034119 0.00023927942993446803 0.00019065543141538808 0.00076959228254609 0.0009646636334332682 -0.000669764462551503 -0.0005365821939681151 0.0007173051462040915 0.0001985444562289274 -0.0008706883682883689 -0.0008394281280939684 -0.00016957847456008284 0.00021321039472482718 -0.00035047211214492193 -0.00013784961165370956 -0.0006207630255978236 -8.651948737712018e-05 -0.00011523060467233262 -0.0003296933699040911 -0.0006637931926344281 8.6953350549074e-06 -0.00021719429288456825 -0.0005490194819897134 0.0004446260919622573 -0.0008886899500959103 -0.0008629838076708038 0.000633015984061497 0.0008825029628533089 0.0006623744146256995 -0.0006184909056134822 -0.0008391619148804128 -0.0008367183873233988 0.0004142838641200625 0.0008897439480343989 0.0005040257860827128 2.5215487844454376e-05 -0.00023194500658353645 -0.00024264017929898735 0.0004864643812320193 -0.0006543079628289146 0.00010293586436917754 0.0008300774974215827 0.00015905408898430349 -0.0004094563998629264 -0.0004372921742475397 0.0005010927373731064 -3.0512590204274243e-05 -0.0003052128859445829 0.00013488100087303092 -0.0005158021366498406 -0.0006753679147450078 0.0009286621200069469 0.0007329649884524243 4.2459886225541636e-05 -0.00024082733211147872 -0.0005282499311770415 0.0005448835299650663 0.0002885167427647717 0.00045250309488939575 -0.0005138432868918459 0.00032800285946437573 -5.249664919256133e-05 -0.0005704590482522006 0.0004082096841324335 -0.0007333687276384746 0.00012500369164455982 -0.00017634961079799228 -0.000577708068516519 -0.0005861968541664553 -0.0009386458998453169 -0.0004315241086404109 -0.00010775807094048288 -0.0005575121816992308 -0.0006279786171235386 5.99949667495288e-05 0.00040415008227307424 -0.0006119137125911938 -8.304766771936455e-05 0.000455416645858901 -0.0009890779549162722 8.225711761657368e-06 0.00043695611798776697 -0.0008827935015951796 -7.476988990424375e-05 -0.00023510556790604271
-0.05191338173981437 0.1498212501924299 0.3013476514028738 0.23973631369500864 0.05382545104892654 0.04156073580424475 0.058437872140724635 -0.03779475476551656 -0.005644707574795485 0.05358802110586256 0.051837160733360005 -0.0239318026991959 -0.13837247958370955 0.03297463894252859 0.021927640701584757 -0.025546031900430692 -0.04500911476990615 -0.07394568945698432 0.04817154514648576 0.16342475669116907 0.17574961512742115 -0.055833467752255735 -0.07466942848308351 0.17165270555370216 -0.05256336675882846 0.049579899905508026 0.01958177980499185 0.01930651124741636 -0.01693225387423098 0.059062949896160254 0.053851701392135826 0.041117959041661024 -0.1856067736828596 -0.05321826154327648 -0.0954821998601098 0.05152666064523191 -0.031121293189741814 0.060211462037173 -0.10318281031960541 0.05423362245916062 0.050170321140017515 -0.016452443569763317 0.04363253175675935 0.003910849797002057 0.08640633546622821 -0.07476946805074644 -0.061307960737307654 -0.04758941141902027 -0.15501014220244366 0.01818846095198036 -0.04919650668334933 0.02081462132600351 0.16063255445222674 0.027821716282392293 0.050517385351224235 0.2424112337004362 0.017034949393817684 -0.05270276362027885 0.03328811285982822 -0.051819309339531765 -0.059648847346525355 -0.04584324625555375 0.10866033735203745 0.04554006840352583 0.05963420691543951 -0.030548426838205543 -0.06202290522638546 0.04569898235146211 -0.04969271960831875 0.14863404819589013 -0.04892689474468982 0.03808123977141899 0.005836601641345685 0.013597548085968494 0.01741159382109748 0.043374982695716366 -0.027871920925505174 -0.14776500996172037 0.0059665450219630696 0.052552477309732934 0.05370937347273863 -0.040796464931934666 -0.013168869168375036 -0.017016390824253963 -0.046694238857550564 -0.2716482939631325 -0.10174448449678729 -0.07059405639946974 0.022767508311568516 -0.17071573346486849 0.02756263169392787 0.03901441590530393 0.1461095122392062 0.21389382037398927 -0.0073079905332313145 0.050756556817111304 0.08656331322359713 -0.05724405380230568 -0.049078765355009706 -0.04268835106985107 0.048644969677326455 0.016033487225644526 -0.04480028068567408 0.025158040311236522 -0.054483474062374145 0.0491501647498311 -0.05313639792637595 0.18682857810511047 0.08658735385844325 0.06402049904509094 -0.04652704779248477 -0.048139797208554845 -0.02083477410925365 0.019071523174781942 0.39756735054672143 -0.04928102272188337 -0.055867767957446045 0.11585491209198213 -0.027203777820634913 -0.015781560090462065 -0.05869800276589168 0.03321896989732476 0.09996704851079209 -0.20181695328409258 0.013478403570420476 -0.044803190117675175 0.061000476143830404
-0.10349244091104669 0.03529234557848472 0.09129750222393643 -0.02634815729328687 0.10190596597694548 0.022139899528297716 0.08450811741010357 -0.025000023997421336 0.059949868917315415 0.10375632068503127 0.09706130024221123 -0.053133845294094886 -0.020438290219449984 0.05146117288555604 -0.003333896585075215 -0.024311955980636776 -0.08227079733751769 0.0766195005436011 0.08352703707732 0.011644765890177239 0.014667270644808739 -0.0729764771240024 -0.04106738012854267 0.08302420497201221 -0.10181114121720408 0.06911220079640648 -0.056358399055477244 0.04461243259530948 -0.05939607590607013 -0.02106005597897319 0.10366277634135788 0.0030537646184745086 -0.12098470608409383 -0.1045973803959908 0.003921873431910469 0.09067280161047647 -0.0434227858269425 0.11852997514467054 -0.04953744268888945 0.10471394280952881 0.07253329233372503 -0.1178842289236127 0.06820604729534237 -0.024170666578459725 0.0305278536467355 -0.06695991713163182 -0.005660678170336668 -0.013670290855361535 -0.0721390675338192 0.08536217002508811 -0.08791735407119883 0.05690616871762969 0.10846145765286623 0.048895562539837505 0.0016490994410995753 0.1413862852248627 -0.0789230261973545 -0.0712779878513227 0.06096023125335583 -0.09971038180063611 -0.002544295839423167 -0.029545407144029836 -0.12011985121829265 0.0763426965098914 0.12580351405150303 -0.08808755837030686 -0.11849284157686137 -0.05092425490105966 -0.05809963470522241 -0.07786863598488282 -0.100557110031743 0.0658436146941318 -0.046517106281356156 0.04877844689628035 0.022499814832737993 0.06597555816631638 -0.061097595426789615 -0.030505924569504576 -0.008318798040388887 0.03497208584333809 0.10519754724125038 -0.07033980473747165 0.07198244681591953 -0.02303815009523731 -0.08793043037146667 -0.012851528529882151 -0.11478569874026673 -0.045112338803926046 0.008131819561272428 0.03230082974073439 0.07774545983305965 0.06342471215673842 0.11256369751225524 0.11699991426727911 0.029027031274448074 0.09663532778858056 0.060683715382128 0.006846556252787214 -0.07709865607684546 -0.06076320382693757 0.09337507708849196 0.05310320920224433 -0.0757014458809416 0.023772133163077094 -0.09094293422886005 -0.10287224677943806 -0.09710715338838123 0.03424671347582361 0.0703425469065567 0.056783114119704686 -0.07587271894129875 -0.07382273828359509 -0.059493890339242156 0.011941501003372407 0.13263492828334372 -0.0765171275227261 -0.10996832479971108 0.00557625790628121 -0.01371367073356634 -0.07058097729230087 0.016476470966982373 0.05082129328351261 0.07019164703914665 -0.06702059867490322 -0.008747335719460392 0.00663496361738256 0.15801856023820765
-0.06754683073981167 -0.1296901299008536 -0.21641144914741092 -0.2751924323589147 0.064869449455529 0.13913842921356728 0.08121899070816307 0.13608414072766167 0.15862623578384233 0.06652721035124773 0.0636257015805436 0.13602281181674994 0.17087629275079488 0.021935967657846635 -0.005862857034677555 0.15041018000028297 -0.05622260382283446 0.06112702357407095 0.05494469699103047 -0.05365675786717129 -0.17496920194742177 -0.04690010229189324 -0.09969736555935148 -0.05575654805463835 -0.06647915728652155 0.06956501505956642 -0.11736500257232343 0.05919927868821009 -0.053510641934348464 0.039816964744057125 0.06820969532053668 0.03413495564790434 0.18854463727071782 -0.06669309288909313 0.07675960964047589 0.05317510328402914 -0.061477249210790175 0.07338107514146314 0.022353609986830055 0.06749065050732338 0.04003173179204533 -0.09949515502118962 0.05093387606451428 -0.041461063951421614 0.011767290033704634 0.062204085605353045 0.1525083892148825 0.04981575801238025 0.04261795035795414 0.08057419989386554 -0.054311561389417944 0.05776646814669552 -0.07252628392161227 0.010904825770407352 -0.07222130390318274 -0.10011237687153819 -0.09802072333087694 -0.033792792135449244 0.036271565262036475 -0.06408122843440828 0.11114184938444571 -0.01554983777630873 -0.12940443166066007 0.04768222540272319 -0.03531841193994295 -0.03260498512498341 -0.07247109434707284 -0.18600220473306323 -0.026868220667413987 -0.17505352494483462 -0.06725628947361839 -0.012118953978985565 -0.0759486317914429 0.03026901651876643 0.0072938568680483784 0.04704020487327869 -0.007289567096345446 -0.005401134245492177 -0.035719008243698384 -0.012728186012275603 0.06856142787865278 -0.053149253930730334 -0.17637353761714475 0.2574040869748069 -0.05602826432236984 0.31174889912629394 0.03811014804586495 -0.10781457417125975 0.014574777794162917 0.31397381257235263 0.10058460282465283 0.05551624052523517 -0.11071252908425926 -0.08402831672884432 0.011239300636937706 0.06187698101317906 -0.08244064830627207 0.28082864321144657 -0.04392492369588458 -0.04637202745285124 0.06347977062692699 0.0786069052343988 -0.03952574851037986 -0.04001266273704483 -0.01948361941684566 -0.17542211111181996 -0.06147424365583039 -0.13509991369855795 -0.07911371465039009 -0.005327362162206521 -0.04428558168190304 -0.045588377220707466 -0.027987993330638703 0.11416902747543177 -0.4272787758927774 -0.049362548263123855 -0.06978169458227598 -0.13725385732964715 0.03522193196406099 0.06646683444075928 0.17286007598252062 -0.03495967420856729 -0.002116409415259637 0.27963789600440825 -0.026810734137048774 -0.029675746632290112 0.10828829607885372
-0.04693334246528292 -0.008495577068034228 -0.09899321986443442 -0.024573792784181512 0.0466704221573782 -0.019143645812034385 0.015605220299853602 -0.0004467514819516691 0.01767819976196297 0.04596732880001894 0.050311759775765096 0.03496121929563441 -0.026224858805696586 0.05096329586404945 0.031138322170936414 0.03435315006272153 -0.06182421973045102 -0.09957887429791605 0.059301262922032444 0.07155833193865793 -0.0014064472735030985 -0.035611735665288594 -0.0290771558194591 -0.04228114582421081 -0.0465024018348308 -0.023110111824753646 -0.015056204185700485 0.038871518841469936 -0.04449952653921214 0.006436589375652773 0.04516607219061154 0.015533110379742775 -0.0375267171992326 -0.04503212580058363 -0.019757984209726184 0.05275548078213426 -0.030550103134690552 0.03654035553521243 0.019363506586387896 0.04452471910287765 0.059717660937517576 -0.04386602328566838 0.06235499074924215 -0.02893464972866775 -0.0553942309294066 -0.0034722373577179195 -0.004279533496536824 -0.0023483765483884676 0.023555014468199017 0.08076642526999249 -0.05551304846569083 0.042290855385325496 0.020475141814041652 0.03951467651199439 0.023434670864758783 0.032588238783600065 0.018947478091858778 -0.06071936867979736 0.059828895350150645 -0.04798187701003312 0.02340521227484925 -0.04698590241774199 0.029027602700832673 0.060574499420420515 0.01028033120215285 -0.029245622115996163 -0.03745581632198721 -0.02373234262899255 -0.05367154032155684 -0.020739411766191575 -0.04795275503541727 0.01865028765732982 -0.059221153427380435 0.030222344954843383 0.018336299649406498 0.05156757821945382 0.02606588457286009 0.01896253896907005 -0.03016355029502296 -0.014359492603729245 0.046511188152772734 -0.05935346545490166 -0.09314537641452086 0.09398576042316964 -0.055548039866339764 0.07452770895130569 -0.01033437450591945 0.023307351647502823 0.024872503663652942 -0.04935258268290958 -0.011015328297181309 0.05980221011268358 0.03534105633108291 -0.06520372348988464 -0.11913283991567122 0.05153465697663903 -0.005291786980887926 0.06309338139256973 -0.05730951871835808 -0.044790697019187115 0.054753367555154385 0.0457291351426579 -0.05773560515424509 -0.04347731925041127 0.009836294375282077 -0.025320934933571775 -0.05125497812934867 0.03640791145559907 0.01945070007557266 -0.007524163526464657 -0.05773223960115289 -0.06182260542416809 -0.0042689050063651 -0.01884276830017505 -0.008192264441906716 -0.09219151443877648 -0.04232649412409411 0.008873036961178474 -0.0005772188784569524 0.09139188936535632 -0.029748463555682364 -0.042802923124132204 0.0012364125755495077 0.0037246507565294705 -0.020902368541287922 0.01503744546033769 0.028669402634412772
-0.08280625319947535 -0.07084167454119827 -0.391537998976202 -0.0062149368908361625 0.08376821950470176 0.013198694416445916 0.1046936910959058 0.14810922621318526 -0.019880012983408305 0.08084481745889088 0.0899326533353355 0.11842532544967879 0.020126775516812415 0.1061123165393843 0.05571281391524734 0.139709793979734 -0.11347693184385367 -0.13783537649628602 0.10495665273191154 0.14332449280138168 -0.02482575208416407 -0.08186470940691867 -0.10202341384611349 -0.22974333362212765 -0.08302990372746798 -0.06467480037210958 0.02044916831237658 0.06677829008644677 -0.09166185537670221 0.014421424793078317 0.0817059344533929 -0.09391349964568302 0.05171528808755154 -0.08233926706472003 -0.0038100600396338523 0.0967440947889104 -0.022013698680857733 0.07071422468087543 0.0691611169421877 0.08126177051650574 0.12036865401793817 -0.03799105026277427 0.12492516603969314 -0.029861163824271314 -0.1844685651212225 -0.10147516722376553 0.09021555729456382 -0.033544154202878214 0.03919405120690436 0.1957745543129151 -0.10022979282296723 0.10555195627146682 -0.026864734478819038 0.1328867774900747 0.0670679564538964 0.03941596683540826 0.06124168940518277 -0.12119869623771908 0.11992707353659338 -0.08696289781255806 0.07783417031971007 -0.10539106433254405 0.027008664375063093 0.12036197495220646 0.09603556065526785 -0.007446391245257393 -0.06929030892468972 -0.030151447529143956 -0.12104961189165908 -0.1414463040389515 -0.08565255520861652 0.0625474988817474 -0.12016383173276954 0.07519200458558006 0.0513406031345209 0.10773831557123595 -0.06164684073266476 0.004711761412432311 -0.06557083022209824 -0.09803077282261989 0.08180139653057023 -0.11399327386477613 -0.11767245123297476 0.153715585150825 -0.09967011555452529 0.18444083863198613 0.10518127474801245 0.028848134052755704 0.051972929965021994 -0.14477575532494327 -0.08975055954926697 0.11713094688477976 -0.03994760025196048 -0.23683498410817294 -0.27595526539685256 0.0896220743665268 0.01627401792902031 0.1886066564181365 -0.11501225353222176 -0.10678579440383947 0.09431433050069891 0.10654863568820461 -0.11379226977984336 0.01973683804938392 -0.03345131059229724 0.024177297451180173 -0.09004056241703196 0.08814734740118141 0.0395795434191399 0.03682600490701298 -0.11169905356012251 -0.1112373661327661 -0.14193744635316322 0.008496167128463199 -0.17755271532203518 -0.02262312701689022 -0.07712942730098228 -0.0915430215768201 0.008545194868346564 0.1757763298842902 -0.10874124964558368 -0.013888183269466368 -0.0860111613048693 0.028005431410849917 -0.004788704503884152 0.11621347628659763 0.07006112563352411
-0.021108768143766492 0.057585212517900414 -0.08706371624906391 0.009624528051177089 0.023109798658633034 0.15579465935969325 0.0692657964196777 0.04006338788359688 0.062209241011014375 0.023781750657679148 0.0159808907584481 -0.004426771574804847 -0.08080988403675993 0.011520125491617865 -0.041530514674360856 -0.07427548288101168 0.0141257125281192 0.0504805006600423 -0.009437346416829986 -0.09866262090362252 0.05668811989784532 -0.011849727218883273 -0.03806635408605603 -0.07359219245171228 -0.023214619850338535 0.012962652793484653 0.0044800650193594724 -0.01828566885130403 -0.020954765672783968 -0.046356696901605536 0.023067437588108117 -0.07382433679121275 0.18356822930912972 -0.02436123850445551 -0.14889152165646358 0.004303922916920108 0.08109503060714579 0.04011868076158326 -0.06005533365637996 0.023319959642511632 -0.018448617003668052 0.09292652940621514 -0.018257305736549333 0.01538573777999473 0.04618061826511301 -0.048783994349379765 -0.0924925661155233 0.003163952054803096 0.23646267007127034 -0.19163034957980118 -0.0011561390282985502 -0.011121202531413514 -0.28570940221533747 -0.01840256184017375 0.09201784102731524 -0.23122102390853663 -0.12762505171823277 0.020902894696728846 -0.020480586968232215 -0.015529129951719066 0.24454629649370296 0.01960438810288418 0.009575024317964049 -0.01876918096233369 -0.09939974806529563 -0.07875283363782667 -0.04348778398973413 -0.029932542349631868 0.004259801594186396 -0.014870291769885241 -0.02268587895153283 0.02245549600539296 0.025983726949080053 0.034525067311891124 0.06634086952667129 0.01196812070036594 -0.000962372504979106 -0.05673307177378304 -0.08772867964174037 0.02527058233568352 0.02379449513843621 0.010850677255251422 -0.017870290251108267 -0.07583021279703409 -0.004221627742172728 -0.14261280544163488 0.17108018289700053 -0.07226231743418655 0.021208610745379046 -0.03471226753532565 -0.09675745023415627 -0.018462146382595697 -0.104904440951485 -0.2542099135461293 0.008355054041146457 0.013450154509324972 -0.14708803697589812 0.012708265744215663 0.00588515873154264 -0.010041147956034484 0.005547141795276898 -0.014427227746787874 0.012196065088109003 0.03575377758351757 0.04424452879173512 0.014760718078797749 -0.013195961942829201 -0.13051358766170632 0.05564002649900896 -0.14369964628332477 0.008201686322965543 0.021076271358846405 0.02328038647640364 0.2324696508295465 -0.10695176518389435 0.044082547378340796 -0.030276161325465272 0.09743118972354986 -0.03680241979975259 0.011093421937615935 -0.10856108110446414 -0.016588290399161244 -0.03335009409788258 0.055170313635196644 -0.16882345139273 0.22299734270606972 0.10690385551509338
-0.048053425498924086 0.231854558170707 0.26411262260803575 0.046792699904534274 0.047522329739965306 0.07810985196825111 -0.012243941642248445 -0.11995985083809309 0.039318982202464166 0.04879715502019416 0.04046611072976538 -0.17201017477141764 -0.1749123926411362 0.02319453793527532 -0.07690451417828664 -0.21222524924951752 -0.007168155828700669 0.04030857657910043 0.014845309246948896 -0.11198791550218325 0.07081623735532006 -0.026628432536556317 0.026538864058922498 0.14098022017837628 -0.04866604353056483 0.08317256274561034 -0.02303571158988436 0.004501264297373347 -0.024688710045524472 -0.08501659867354318 0.05020648657559695 4.72874547742538e-05 -0.15964750651035473 -0.048823123461839764 -0.1764148357662989 0.029321712323239036 0.03541816006991734 0.06519799476617501 -0.13503755649348398 0.05046030936275381 -0.0017706955006516845 0.011932970720558898 -0.004977117376034219 -0.010342695912518636 0.16254243663155848 -0.02847673203627663 -0.1974058039857684 -0.01410981213894809 0.09919962133199355 -0.20258639008270116 -0.027257151649798524 0.004170192303894374 0.01974485129059518 -0.06408066899555394 0.10272680593082296 -0.06094255935319838 -0.13105295867232525 0.005838763597276685 -0.004016815655445553 -0.0416763524546108 0.09244158327699227 0.01666879762781455 -0.006262128504642696 0.0012413120452346548 -0.02512695655892835 -0.14380440750526735 -0.06792361236588601 0.03146355661526212 -0.0012392609337887877 0.08690768087297322 -0.04446372367123319 0.04939524649607966 0.020507126651784682 0.033108950214311164 0.04250247526395297 0.018765094740029 0.030475153842146413 -0.0713410262389106 -0.04951187732177738 0.1367037864175412 0.0486464168751016 -0.00018304911880804133 0.049319573149664044 -0.11819924923532886 -0.02426050277149284 -0.25137142216664377 -0.17082381065759505 -0.047563808967729417 0.025002977343043475 0.02848942883943934 0.07966237134234254 -0.006545269463701509 0.1621710907994592 0.05964407591952685 0.13384628350284455 0.038227891785634065 -0.05990004295590465 -0.12790852514120832 -0.009137461040652712 -0.012447776316507366 0.02968795303089975 -0.012676360298442747 -0.0059254265602958515 -0.004697964523138557 0.014408391281158695 -0.056280588164331166 -0.037984990997560496 -0.03820316868970466 0.03951873561673783 -0.13968906356310182 -0.010093219430408123 -0.005612386835510064 0.08623497965423152 0.09400534049122329 0.28138557357520555 -0.049469398887954034 -0.05639971356105063 0.2975253969683742 -0.068640408303545 -0.11027899438232806 -0.002336348402105738 0.006854147107158749 0.09633525279316163 -0.15481182393492393 -0.12825552847657806 0.032817781565586616 0.10662661622898234
-0.06266016157704753 0.02267003647116811 0.07577318250561205 0.01643828049832051 0.06387407573092901 -0.0060571930402938436 0.01928018445770598 -0.009967531597122874 -0.06110161019821539 0.06236043528763315 0.06604109915156241 -0.04410837877772592 -0.02735466077427628 0.05441535700518308 0.020738111853380554 -0.004572906395250294 -0.07871213654762294 -0.02955326466321954 0.07657511906313287 0.0858183155493195 -0.07393292184428062 -0.06976491180962972 -0.040891009885238784 0.046359782539300634 -0.06385892316412459 0.03634132679559707 -0.0054722746754532325 0.05839427037227497 -0.046426176687151814 0.00927148434951439 0.06350947038947007 -0.029269060903501613 -0.17924360771275707 -0.06333354780169285 0.015070595187049143 0.07047595381152047 -0.03492393104935026 0.06003659263459309 -0.03726798973681958 0.06328369876890629 0.08062406239687228 -0.10460483189443151 0.08133138027341538 -0.027016816082307476 -1.4432936492330433e-06 -0.0489897640465643 0.02178934821889682 -0.048058120308259816 -0.1328586750674676 0.15678831040719224 -0.07303738483176045 0.07601108925384713 0.2977204471095701 0.04623422872088272 0.024478222462056116 0.21354416453754846 -0.015070014108106926 -0.08066317520010352 0.07288280615819731 -0.06563381207261039 -0.09457227015867667 -0.0685836664022174 0.020825684762348633 0.08153905522107502 0.09405132919962514 -0.03623174134572332 -0.058697901373457165 0.03137003336816558 -0.07576413560079363 0.007167064109839741 -0.062310004728214144 0.04820183984876796 -0.06296179091367775 0.022049538674067785 -0.002346339007765718 0.06831061449489477 -0.0798032568391105 -0.04127785662293276 0.008435220956520028 0.005328802418294918 0.06254844391421094 -0.07424692527920805 -0.0007907294740091926 0.06821359325638358 -0.06955864459259736 0.020195263781632337 -0.2630115079110024 -0.005599139325180398 0.043940939753082844 0.0033181793303707365 0.13074793424793635 0.07557530786715505 0.13975399411796116 0.16164102902777758 -0.06213729944535186 0.06723980917185615 0.11428446822187789 0.024447557577850606 -0.07672826998463633 -0.06907100327588163 0.06988353797885331 0.07099565617257968 -0.07607586949191948 0.019606774932798884 -0.06756145102111467 -0.10010656255904991 -0.0662297773068689 0.13992114074498083 0.040553474309138395 0.09969800657590501 -0.0734255915297402 -0.08012486513724386 -0.09027789093120168 -0.09533497061219032 0.24091179806527346 -0.07692279103222453 -0.061203809564844225 0.028449278205953988 -0.0014520323811495217 -0.057704400200935424 0.054681427321378276 0.0499466269494922 0.049162829821074755 -0.14888636070531489 0.037487281321246284 -0.10781680095392839 0.04716829432878933
-0.00044878575037742507 0.0009859586829955897 0.0007464137595726908 -0.0008471497754512756 -0.0008013053682805587 -0.00031783349701036516 -0.0008189044094841557 -0.0006194661337668297 -0.0006540156992862782 0.0005177640724368367 -0.0007744403178285028 -0.0002476277484417999 0.0009159130160038388 0.0004684729971182705 0.0005155906910484891 -0.0009671340009637337 3.9390210809553666e-05 0.0006683830833101461 -0.0006876014967924383 -0.00033492634011361244 0.0002294589392131314 0.0002693297098499501 0.00022356862832814597 -0.0002948297962772861 0.0006593070927885243 0.0003002965786791786 0.00041767858105032905 -9.272087232557453e-05 0.00037230161576294607 0.0004544475806188071 0.00037550165172088113 -1.8625642907556597e-07 0.00011103716320969557 0.0001325703032140687 0.0001733448750874647 -0.0009926129502932737 -0.0002905743791915572 0.0006752540605213266 -0.0004702990196402497 -0.0007017498420244025 4.626026318805729e-05 0.0007931467066490769 -0.00020607464378566225 -0.000984862125483789 0.0008665430737027214 -0.0007740388276380874 -0.000620364603760613 0.00023108525914572833 -0.0003834466273625361 0.0006989293255151164 -0.000732014971225984 0.0006187800469098575 -0.00011306443172792236 -4.645289162888129e-05 -7.699630775525798e-05 -0.0007325796415019559 -0.000244213160331777 0.0008347244446686966 -0.00010910698227254453 -0.00020641709880268747 -0.0009628303356073101 0.0006417623195151716 -2.6441054892887422e-06 0.0009267951288010996 0.0001873291426059368 -0.0009600904517749937 7.718717661058146e-05 -0.0005043117977571456 -0.00029443298994439205 0.0008884450888308763 0.0009841471785286466 -0.0005633289357777063 0.0008621846648879231 -0.00012366959034591156 0.00010953657914991393 0.0007077930276954644 0.0006317968954465251 0.0001293531710655914 -9.060638221855858e-05 -0.0007386434727480744 0.00018242878697633685 0.0008468088095624747 -7.731646150652561e-05 0.0004032022506282914 0.0005196930817695658 -0.0005987120963012885 9.624865884038129e-05 0.00019854296435754663 -0.0002301721522211138 -9.930199056730742e-06 0.0006985717688525366 0.00011956224620332089 9.527957902761989e-05 -0.0009532766673135203 -3.6424257331421324e-05 0.0009755422074375934 0.0002195671619200461 -0.0004390450489136177 -0.0008444941718022678 0.00029685348433766386 -0.0007447848370833312 0.00011821204644914458 0.0005472604464874752 0.0005170208828354393 0.0009440723334432747 0.00040280459913417965 -0.00010080942724925105 0.0007816500300955544 0.0006098922397385028 0.00035070271301990553 0.00014204302989147158 0.0003930783784659821 -0.000231734985585436 0.000363200651300157 0.00011136690467070413 3.132763776511095e-05 0.0004046367984442325 -0.0007452104351006255 7.725053477642763e-06 0.0007371416018770135 -2.168014120442971e-08 -0.00029554142662481997 -0.00036370175000287406 0.00015248525033866814 -0.0007097461514167556 -0.0002513763496811527 0.0001259656122627813
-0.050806486731986296 0.1172690213900931 0.20142651569910106 0.15961864779885995 0.049454208745766504 0.06472233745972748 0.06297974741247804 -0.1482098495802888 0.12789760685898932 0.05059074368513624 0.04735183783752186 -0.04603960835220463 -0.1539679436954553 0.01876534170774321 0.062077686837007644 -0.11028554507865393 -0.04080178160638216 -0.10803406566593599 0.04393739948424971 -0.0015968324386758546 0.29417335524664356 -0.05067819194423281 -0.13068766058835743 0.18710187376562332 -0.05002246370271328 0.12975205202559462 -0.09731057691023592 0.022337101048314198 -0.032443976259579836 -0.01922988403455225 0.05070016302244247 0.10020311225700211 -0.1555503249991965 -0.05166356516131331 -0.05937299894840997 0.0475921088313605 -0.011097813347579115 0.060040367280735814 -0.14295912892486468 0.052936511247132605 0.03925787074235773 -0.17675781565938617 0.03414741329606048 0.01841744652196873 0.05581659606432027 0.016182681127908945 -0.09022200358427655 -0.022716630474625847 0.009044635052559872 0.031132563472319193 -0.046169019421209476 0.020850792733418295 0.06218753862889588 0.03728811277504384 0.027728950449161727 0.11617667293016383 -0.22590203918089005 -0.043522455698542364 0.01716012609355931 -0.0465093371520169 0.1289653599462388 -0.027337075425937597 0.03811856724085153 0.03616162163787744 0.10066698935900828 -0.12276613047137547 -0.06138336427935257 -0.07395457299935643 -0.036526001192771655 0.0719184195437677 -0.047385320642846715 0.030151765299264256 -0.005539689333941825 0.014013974047661984 0.02587054754188133 0.03666565232550697 -0.04086674749430425 -0.0896204044481807 -0.021565899656253336 0.07468090185971846 0.05045955764728982 -0.03998573493637831 -0.12485052080421409 0.049512029163808466 -0.04124724406410324 -0.10017531515664208 -0.03573964307677996 -0.10851751779042627 -0.040412341625756416 -0.03062811734514797 0.031463956848656965 0.03855204520656976 0.18178340922012592 0.13767671755268068 -0.050408688282068584 0.04702365078760229 -0.03337926217641312 0.008045368277550927 -0.0424916227169335 -0.034268275093313365 0.0428793726431263 0.026424649415670548 -0.04062839742377008 -0.03590682968244157 0.003737913032917821 -0.019538305916461038 -0.048585144877243636 0.04854409908901919 0.19879731593241678 -0.02728314046742941 -0.042915857100276254 -0.03796832536658669 -0.017710358019334748 0.11689503909572947 0.26606644405489027 -0.20940666984878187 -0.05509179469913311 0.025896491898664987 0.02598891752891786 -0.008278657375563495 -0.013611762942683207 -0.07941426697320929 0.09978572104149715 -0.10197559031356687 -0.11619692298285106 0.041994962033324895 0.07849416557214606
-0.10554644000141605 -0.06718386047109656 -0.004278298916206405 0.057202521434306555 0.10353310749699438 -0.08150031949839648 0.08152441498381573 0.05104684052521454 0.02479138641081878 0.1055510331462834 0.10013651630523437 0.026729905725673617 0.11770387341755176 0.05021417516918344 0.040600884653928915 0.05527915134003729 -0.0845612996076464 0.09603331572040476 0.08743381994713469 0.114776004126338 -0.02775535055130302 -0.050619294857267204 0.05788494441585916 -0.027495516183358337 -0.10468393631412017 -0.009440094784627602 -0.020152574198503758 0.025979736680480047 -0.042607415239448956 0.0559398233470779 0.10665914157746849 0.042942025755713084 -0.041472508736891456 -0.10600109263062842 0.10312380971552579 0.09319751930259161 -0.04962331154685307 0.11498558796484867 0.018085137305542693 0.1061856526843957 0.07477678194880609 -0.03778619410102901 0.06931680773150528 -0.02124868484258085 -0.0004959079703162514 -0.12013725642435075 0.08104252144824814 -0.01221198735620069 -0.18698038867033598 0.10803969556062963 -0.09151857752126394 0.03484756302530398 0.044393964944006895 0.06787420265325267 -0.026788782000895777 0.13913238006719517 0.06947783065270113 -0.0757838510879168 0.06633629410577034 -0.10235049013933013 -0.12336922307886403 -0.011706796115059735 -0.12781013227914412 0.07935920366161768 0.12759429285844143 -0.006197887614545349 -0.11589271731624419 -0.031894514447529485 -0.055739399261658176 -0.09832942934214259 -0.10209189670699191 0.03361472018780918 -0.03912430021495077 0.03184122067916624 0.02608032427006954 0.05895635129128268 -0.03399999024116365 0.05719395985172842 0.01981645158535601 -0.028771951872171114 0.10522293122827338 -0.07299153060923333 0.2192146338541913 -0.09237116511471415 -0.09360506883117743 0.10208238252727497 -0.02183536814110298 0.017931791216392944 0.002798909324591372 0.06435804741379801 0.01833003981588984 0.0652367024233639 0.012060141803527876 0.06759174349827872 0.031642141792553764 0.09905237737928939 0.10266981690856165 -0.03908317879465275 -0.08172672796645242 -0.04763209391937845 0.09508889402849789 0.031135623819717823 -0.0796528670546942 0.039667866733619064 -0.12820626565513157 -0.005578005485270188 -0.09841148281022599 0.05363137862184198 -0.01714576792246743 0.08493470370309981 -0.07801392715106462 -0.07707809777419758 -0.07127120111724644 -0.079153960165956 0.010638733050841107 -0.0025104451232532987 -0.10962037529122186 -0.07708621822412351 -0.002177658335508469 -0.05326720497486157 0.011258749706188525 0.10446203504373017 0.03000641594135602 0.004308409878573021 0.12074591669860944 -0.041201724038639254 0.14184879380101856
-0.07051134848344041 -0.09719202367393272 -0.11610432563274509 -0.1954274712841407 0.068434800601072 0.11739729567832446 0.0756406948820762 0.247773148079384 0.02374528114208279 0.06824492919212692 0.06815682721230742 0.15535269640180188 0.1869730791614473 0.03637076615845281 -0.045473805172278864 0.23274803900765256 -0.058491926182235386 0.09425891662249877 0.05953135936396132 0.11327217036714285 -0.2931155400845635 -0.05116717801261764 -0.043707620795315136 -0.06952339790594343 -0.06885541736517732 -0.008611474202692048 -0.00014855562090862804 0.05518868821830577 -0.03938421320230769 0.11831032601131274 0.071344810731917 -0.024092415905886587 0.15866654646903272 -0.06937516620368249 0.04112851235590388 0.058471617567328146 -0.0807148722339943 0.07285093206146219 0.06293250604903222 0.06830996317520016 0.05011405796506514 0.059710245854467735 0.059169714586903746 -0.05522998312632843 0.04410222678370569 -0.026914178590559664 0.18222912275947808 0.025829561986821032 -0.11970956925394707 0.06799499079217737 -0.05840696229992033 0.05745036474995963 0.025369177497149394 0.002359927337873205 -0.050361871907143176 0.027069256340700204 0.14628758688429883 -0.044696030610221094 0.05323632855460003 -0.06915164204437863 -0.07755401386540083 -0.03396599753021218 -0.058157859301017384 0.05677451360156087 -0.07623670790334215 0.05921600915041112 -0.07275392610431625 -0.06715969516726004 -0.040551262130603206 -0.09758992772452793 -0.0710244433951945 -0.003789693428531863 -0.0637956766653499 0.02962131586095932 -0.001405930184996853 0.05531744628653455 0.005714759083964816 -0.06434231381682641 -0.008754799322319765 -0.03389985062091075 0.07144315536914546 -0.05489527380932793 -0.06324005535839766 0.19096987300728416 -0.06120018877186944 0.1419708739190053 -0.026634396733378165 -0.07015743979854708 0.07750015929721897 0.17660199470906543 0.09460691689483415 0.05521326008027745 -0.1457492416036806 -0.006794946299959626 0.05556644700046562 0.06519001241655885 0.03788783569028943 0.21572430442524576 -0.050210686274579586 -0.055942938091372414 0.06741959967364779 0.06831566730316845 -0.04482959932039385 0.021805100159515634 -0.07576429301170745 -0.10671746015202878 -0.06440397414248648 0.004644545371562043 -0.19137516922376854 0.08646117377132423 -0.049757982853234725 -0.05532751250243938 -0.030520638723789642 0.01862937502078485 -0.296895260945824 0.11113690865430062 -0.06993277404100579 -0.045822609001298135 -0.017597221550830478 0.05938366121847366 0.12756872753074613 0.07529968823102745 -0.0030795922382793883 0.17784569605539097 0.10265687234758149 -0.1162696754778318 0.09326588485351703
-0.02005724471496808 0.0724318532295046 0.053553131894184716 -0.018764397786615927 0.02058844295669369 0.21278193727260958 0.10238944124155841 0.06561822578262133 0.1596564394315032 0.019820971848087045 0.01961236042044213 0.10764164983622641 -0.01762829389249846 0.008633529519312717 -0.02556601793983512 0.10003831857693492 -0.02166766667864736 -0.15852516507464773 0.020273493457303036 0.0773684293687844 0.042037044380656405 -0.04931825059179564 -0.17541161769773145 0.11330942792723872 -0.019704037688634633 0.1149746732510902 -0.09476452302679128 0.042385712555041484 -0.024961366107065248 0.07653000060403366 0.020008709284986104 0.0807056542851303 0.07477680781445878 -0.020618087440230307 -0.09444535891297665 0.016989027840009528 -0.07816273722167989 0.019085903250204327 -0.08669342249169196 0.019756658264770535 0.01694545518047725 -0.08349501445995072 0.025341627529976922 -0.011241731224613001 0.09497645302925493 0.028699432405069406 0.04288455626621624 0.01563936311747742 0.021507250643057373 0.003056302617996747 -0.01907692035427959 0.035485641956364576 -0.020900623732757872 -0.014705554686298136 0.002260624670831926 0.03402242484364407 -0.05802090583484073 -0.0156400057865667 0.00988773615475686 -0.018972469163722916 0.11898098269696433 -0.045688118628739734 0.02356129014440555 0.017357072108336032 -0.04764061615004048 -0.02842699016701185 -0.019872779708025052 -0.1187893414967186 -0.022626534856862793 -0.020407304842882713 -0.01925777991829516 -0.008070108868813064 -0.03010326894537619 0.014429128398054653 0.025802759837541465 0.034065573487281925 0.03457991647829128 -0.17704139429855356 -0.041013349260562305 0.06626958378213856 0.019944742491457095 -0.028381287548964913 -0.30135484564124687 0.275521449206053 -0.016694159419371746 -0.03742337423863591 -0.005309750870118123 -0.18718865961538192 0.03213400926160744 0.08270573328251718 0.07507365363450386 0.029241629587619278 -0.020780470542097838 0.025688823260023603 -0.056515129170195015 0.02009496141283356 -0.07987670413997629 0.21926620739357403 -0.015497103045926079 -0.04270753042394531 0.020986144883837272 0.05877917081486534 -0.009092187665527735 -0.05045257705230274 0.015840881119253882 -0.06526203533556174 -0.018868948761400117 0.0358034709475707 0.05431759997611338 -0.027169050007761323 -0.020470756980342113 -0.018880469825714785 0.0330422743248548 0.20369017824356583 -0.10074404651457956 -0.14134740755440486 -0.019340355923902236 0.04283446224940048 0.004069235502698725 0.11933052045454129 0.05391895862627064 -0.08229560739064508 0.06498723872460026 0.10662941981776919 -0.06752527177651504 0.02739196497464699 0.027718215212782518
-0.07766240210058284 -0.10797823711264952 -0.331803960142793 -0.14430326200019483 0.07974361862844917 0.13564069808141638 0.11097548568465426 0.11716560221173572 0.060541254203367395 0.07781527383527542 0.08464086026083338 0.12019128096736469 -0.026047119911111933 0.07058048406582826 0.06622310434197844 0.16092699924571838 -0.10285309479890573 -0.10700009404315727 0.09651370265259182 0.17899028945815545 -0.09124001675652867 -0.0695205833680566 -0.08918668836213285 -0.1570197903261128 -0.07880641538405318 -0.05986018665720885 -0.014813517677398927 0.06800761098948578 -0.06963158832808189 0.01951691421818646 0.07756189984357244 -0.11825552687040963 0.11106814756999737 -0.07788381254931497 -0.06999295112429198 0.08688045357477957 -0.030852942077372367 0.06833189567708313 0.08240153460831336 0.07756438921803406 0.1084967213819961 -0.049468333279806896 0.11143119657760092 -0.03387386560000778 -0.09254940525883604 -0.010386766515688395 0.03184833922701983 0.0704819604230602 0.21565195479749638 0.19378632958855402 -0.0891547437362817 0.08288747044806867 0.016033863256870586 0.09052617406856506 -0.0071276956918252905 0.012799988900062068 0.05474085705660049 -0.11259490182709647 0.09792544959745239 -0.08047165563470612 0.20810756344748582 -0.09505824106657883 0.3113743933621687 0.10653024396159394 -0.0980542516139417 -0.137090924288317 -0.06846718547464345 -0.14578704663671482 -0.1038588899298447 -0.013084593299428616 -0.08112856119327702 0.01402712738480885 -0.09974738840908025 0.03126477134949148 -6.6901577948703695e-06 0.09204604388649425 -0.006018994327450616 -0.07739277786954545 -0.04679338444979332 -0.045891819152618585 0.0795429781372654 -0.10354647235798016 -0.23976831483906016 0.2388436023646667 -0.089116252768809 0.03947678810489791 -0.019471848718210397 -0.0037688913290302986 0.05792203619899517 -0.06084057688960141 0.041623872790673574 0.1058013150110544 -0.07114500407842787 -0.21380424381130045 -0.18749752658347546 0.08275681852735045 -0.02307050663880507 0.2486683761199499 -0.10132888950107749 -0.08688833739960436 0.08905908276106755 0.09465134138763137 -0.09599350456650098 -0.039127335795573946 -0.0052052277165817945 -0.22506799838112782 -0.08414975660275244 0.03532837139904175 0.04487412439435449 0.013473922347119431 -0.0988146595830719 -0.10438206827519146 -0.04863848857899406 0.012190491543953979 -0.08244504324188812 -0.11199717434993109 -0.07341437618595151 -0.052862525124157504 0.01569180270298119 0.2055006702774217 -0.02858576538830794 -0.04664302076217339 -0.0024349834349518696 0.13302812322805502 -0.1722703343384487 0.014828208538910701 0.06455184854895155
-0.055732389039925834 -0.13416132351947188 -0.2604418684689667 0.11151190465829468 0.05670032252934263 0.023540238422854853 0.02098936868381394 0.18595808234050884 -0.23327967834217958 0.05731151588083603 0.05581828960365919 0.08943828403034575 -0.019543691600480206 0.04717558225363715 0.04785270388003887 0.07149313404835705 -0.04556602993984998 0.014148260234322451 0.044525827529554564 0.03393342145268152 0.010190677155104768 -0.034691017791160496 -0.08086946450956295 -0.28137839663941083 -0.058119991013186614 -0.16971747448139382 0.22641625224637973 -0.03516951037260104 -0.025198520365370316 0.04422837826093181 0.056751707644999996 -0.17462646728209288 0.17057438548553144 -0.057101052280291095 -0.007981662842287088 0.0535593157630037 0.22638805967424394 0.06330864517037293 0.07782294411386721 0.0558226471561102 0.048841104167685084 0.2444911496333868 0.05068324895913731 0.023273512743391036 -0.06081800623971466 -0.0982609673418475 -0.01966821342469549 -0.042677964055081945 -0.10287807539634082 -0.08535088371148773 -0.05208069452191604 0.024723401548870354 -0.09248397719549481 0.13393124576912774 0.07035676284100406 -0.09732037668090049 0.21020857587963895 -0.0568525826799985 0.043729805892649576 -0.05503909956707677 0.07064665610138043 0.03266356399107436 0.2947517162314569 0.05549824454739428 -0.1772683857769767 0.03581896486384122 -0.06383774667908662 0.1436565810730123 -0.06607258555909497 0.22490520700365896 -0.05536775029013722 0.016341094265680138 0.002483539625333259 0.03164418650789477 0.007457752657632812 0.05325227329637522 -0.13674569355485264 -0.031369247193060945 -0.039463851235706886 -0.15117768063081777 0.05586276301588661 -0.03338003260600141 -0.1111404939673847 0.04061990850991644 -0.05478296410492934 -0.29795991074435446 0.3017812673087725 0.059512468711928064 0.05609150240061604 -0.30263651647784917 -0.19938832853957755 0.029106251357294197 -0.22326132347722147 -0.24059025120026464 -0.029932562342429952 0.0533159508887641 0.022731896613834297 -0.03994992502582014 -0.05757984816143805 -0.050391450079636496 0.05049362587709073 -0.010784411853684096 -0.047790136972266146 0.12101876424972587 0.0004835372000065191 0.14482239619989468 -0.053380904122292724 -0.011418290539923617 -0.04593762837082288 0.029009793187121474 -0.03939798944818113 -0.04060371104765548 -0.1497075317853878 0.08219845633526175 0.007536538926989722 0.1675445485171972 -0.05692769798750522 0.011767053689808838 -0.0063928938839267 0.12800348603975367 -0.20938290110477284 0.10200159634402514 -0.16187991617560407 -0.022441517747959164 0.09189709940366621 -0.0017913048191336902 0.08268341395394867
-0.029032281374913874 0.14113543816397278 0.24022539567134132 0.16676295575302622 0.02806879776243468 -0.02315043400302674 -0.038705740466925584 -0.05905644525594293 -0.08373375858705329 0.03027843586296886 0.021213255380398265 -0.12338012047072361 -0.06230679415860559 0.016449713821386592 -0.04994588681867135 -0.19876898231082782 0.009953791646797489 0.11158913369460431 -0.0005519178782597211 -0.14712578384580158 0.04487603463658828 -0.020932373858417258 0.015104888726251835 0.07017446398083971 -0.02972268255601159 0.06668444149334564 0.0342692493965184 -0.01336440640163002 -0.011594419852002703 -0.03116605901334763 0.031332656447234944 0.01916322844114267 -0.09874325675487573 -0.03110082843626304 -0.040684665828020175 0.014012626327839875 0.07637129147613597 0.04702884020087653 -0.14128805554176513 0.03135931685547164 -0.017040242548853224 0.05778852921729432 -0.01988127049915886 0.007282487975490284 0.09803097190057657 -0.07533003286036069 -0.07655336541719973 -0.11682167074426497 -0.13013383351793664 -0.18290943348922784 -0.012179536637787165 -0.002619364182126344 0.005956251382784569 -0.03913861414631553 0.12324811779606784 -0.029913867373335398 -0.15986951782807782 0.02291114374036918 -0.01738028304037084 -0.0229426660275176 -0.07981663613701924 0.03168811732867561 -0.2271281693334223 -0.01070756874067156 0.072491751333339 0.033052466845421256 -0.05009681081219179 0.1485234422244868 0.008580311638393047 0.030825961958420706 -0.024850185407129254 0.04943888259532075 0.03786666941186946 0.028680151628696856 0.05894529273297898 0.008914651635843407 -0.06417996688669475 0.017157563202491625 -0.038145952189276154 0.03855669615291692 0.02925996810821215 0.013184633301746808 0.19461076727516655 -0.20581895073089965 -0.009279169644180045 -0.0786391564484562 -0.047185138769939065 -0.03514658243471422 0.01710137808807372 0.020695541006609138 -0.026222970732112764 -0.019061288894323083 0.0954149449910107 0.0834976239754086 0.08900912646598892 0.020893781066954942 0.0008377212803216669 -0.18048075827656793 0.003159801441841262 -0.008822300827349517 0.011113842622800123 -0.02189461985481152 0.006041390495549874 0.07959846477755372 -0.01353410482801892 0.14767819522889358 -0.018920914097823278 -0.017952500493994078 0.0037991325601358923 -0.046506478859231364 0.006573942666537947 0.013081965685402416 -0.0333862585715938 0.07845931930438152 0.18152793193175845 0.09360398719985787 -0.03801768928981703 0.14790967581094186 -0.0438064377033414 -0.20559400643500117 -0.01963590847596053 0.07425368988811915 0.002112831428110977 -0.20472859985037242 0.06179649767565397 0.05333674684678763 0.0956726644432985
-0.04794813605046214 -0.013484011532057489 0.03523681957408815 0.0206037905640496 0.04739452794686504 -0.06470154882310734 0.04836972272800552 -0.03690096318470163 0.027114210486023506 0.04676866791599364 0.049800994631532515 -0.02575761367821115 -0.01842319283746912 0.03286837616743349 0.0171650542653051 -0.006052530889982495 -0.0516034919229911 -0.09108280496641463 0.05504820184949482 0.11358991114570594 -0.010291742605904874 -0.05095089907002012 0.026167938913907344 0.07123523602273299 -0.047975028329242296 0.05269402453356558 -0.07582165003233676 0.042918007845664 -0.030634787090143705 0.0011904715922041714 0.04887062632821038 0.0692959427597721 -0.11161904176696004 -0.04895147965949858 0.03509819872815825 0.04998309367115341 -0.07477774764507962 0.04627209133333936 -0.044629525272726386 0.048822151680242704 0.05198751248704708 -0.1279205427042383 0.051258443393226515 -0.020711771946269227 0.013455610304836522 -0.06304069549934807 0.03854761393838489 -0.027670641262905988 -0.10676898197899162 0.10735158535068795 -0.051670894699016805 0.04536634434087432 0.17003724862199857 0.03355940613808489 0.01108872006461669 0.17997830923766683 0.014119360422868333 -0.05403366263342433 0.04543185235493043 -0.04811393941297351 -0.07033075623737496 -0.05415937346202458 -0.09629602536492708 0.05184726202428781 0.1394584108298352 -0.03582969807358872 -0.0471597822752588 -0.013928875589929501 -0.04706416816034259 -0.10701343210652282 -0.04772524838623826 0.029396988939939892 -0.0420145162267105 0.011251898434669911 0.032943458123697415 0.043839957851875985 -0.006987617052893399 0.01817086753925166 0.005018145420159582 0.024987486840206928 0.04802900803877931 -0.052664267148988815 0.03249058361830874 0.025564786779586825 -0.048521458103810096 0.03977383274680869 -0.1810670472636432 -0.007755880207152619 0.02935444002843998 0.04840010927958495 0.08896979108164774 0.051206308204745456 0.120687119783106 0.09250612971164549 -0.09823596335546739 0.05034319696906334 0.049791448161870186 -0.03066874546231463 -0.05065735666296912 -0.046564145770904376 0.04887737529391174 0.05092307365905544 -0.04777050696233725 -0.012106447990399616 -0.06836911865221766 -0.029142747222478966 -0.050052579923292706 0.10826042448492028 0.09212917411952583 0.03762108732239825 -0.0513373199330913 -0.05505221748041967 -0.03075357212452537 -0.07582046355495625 0.13320691238988666 -0.1456679677280534 -0.04682593192967817 0.014302044810321405 -0.0013583699120762278 -0.050593091597466264 0.015479694062404315 -0.00662961118910494 0.052484372674241594 -0.04401724821282439 0.02854987855150937 -0.03452644984833245 0.04079942368187047
0.0004124917114925776 -0.0006027631283716279 0.0007792040831112463 -0.0008985435998428702 -0.00022578556458845232 -0.0007596402467020851 0.0009391461829079198 0.0004784878628187959 -0.0007943703546146378 -0.0006240013628954955 -0.0006002452108576711 0.0002801576716132182 0.0003414527277243245 -0.0008597911336718631 -0.00084495279350124 0.0003114586257871399 -0.000128398832762449 -0.000427118896000573 -0.0007801195552294389 -0.00035378573069982293 -0.0005569091121019915 -0.0004128388367654976 4.0337656761839456e-05 0.0005502369866568701 0.00020746251323705057 0.0006647725493484488 -0.00012649912322406558 0.0009025405880466366 -0.0007155290474948736 -0.00046272721936850526 0.0008510826613529739 -5.706333370761405e-06 0.0004885377606948808 0.0004828263476447745 -0.0008093016449975967 0.0005675820907081878 -0.0006707515973963308 -0.0009756377599132175 9.617380762891943e-05 0.00010384612701084877 0.0006485114136965528 0.0008359523472692616 0.0006284351206961303 0.00027679275960316367 -0.0009444991768353617 -0.0002293613483225652 -0.0009972338701393325 0.00020804929470508399 0.0009194218192613243 -0.0005951352987960228 0.0002828330460746763 0.0006371785342781549 0.0006132475621755365 -0.000307578522897922 3.386746816206698e-05 0.0006731197435953951 -0.0003862512425089657 0.0004362564932633313 -0.00021474680803971167 -0.0007994043755715319 -0.00044943781138133757 -0.0007624318068369318 -0.00030534127510408783 -0.0007025291895893267 0.0009809917789391906 0.0006426045235275056 -1.7883318286933056e-05 -0.0007072364714391695 0.00047111262245310933 0.0007874801177476538 0.0009153163324968831 -0.000628943145769741 -0.0006143418950189453 -0.0006081157190901895 -0.0005723280969424122 -0.0005910137852299829 0.0007887054115589024 -0.0002168289992890638 0.0009131770326978549 0.0009479667225103655 -0.00033883516790406175 -0.000865933197700975 0.00016637342613371148 2.1264886509471522e-05 -5.1569188780436386e-05 -0.0002365930596158574 -0.0004448977214201224 0.0005718695716815207 0.0004462481156700829 0.0006804444353765093 0.00048421251317454423 -0.0007695985479805625 -0.0002582141966256113 -0.0006577673182108109 -0.00095937909183169 -0.0009248966137828099 -0.0008425833415726845 -0.0007892457441824226 -0.0009262673899152177 -1.473083274109669e-05 -0.0003808817339113986 0.0008143149132446978 -0.000540528245021994 -0.0005131210139260371 -0.00011716143145125944 0.0008352750801852271 -0.0004341615417991201 0.0004917972529176501 0.0003957107985785855 -0.0001936099608070438 0.0007499845764363988 -0.0009025509593756856 0.0004195764602531291 0.0005189547622653813 0.00037184090945871625 1.4305302914037867e-05 0.0001658828336156392 -0.0006164480826968906 -0.0003475251857612072 -0.0008911899375928194 7.3379127221956e-05 0.0001476632854695856 -0.0001242921261795602 -0.00020085485240382318 -2.3217216519283695e-05 -0.00039183040429377014 -0.0009369130281991578
-0.040473421995021054 -0.058627817030026126 0.04630353124625801 0.08768065941550024 0.040849075827094336 -0.009562603105114488 0.025918082878651102 -0.08132576142921609 0.08371408547554351 0.04036978733593029 0.04150012415206722 0.050987808992563916 0.05179717326425379 0.010192514371839694 0.11530439770027182 -0.03188175666743936 -0.04583900003274983 -0.18619727853814533 0.04401515775223003 0.05836642834525999 0.1769638285227625 -0.02864139298191077 -0.09824053099473558 0.10263352282724399 -0.04139989654677293 0.05452241735066601 -0.0908607088583462 0.024742495414654106 -0.016454333940360263 0.04157232994444437 0.041557532711775036 0.13933421249599945 -0.014336527051954654 -0.04080289963644778 0.10380141622640768 0.041753075954725064 0.0003112616286339542 0.043058701020727945 -0.07174249992994353 0.04375678100456486 0.040610184565580014 -0.17361947027009988 0.03621652739378785 0.006836141467066838 -0.04729392503080905 0.04927224886713355 0.05225990029908957 -0.01914203705292382 -0.07080297148706753 0.04791193893159825 -0.043991720567855254 0.010641780824172527 -0.021824155274257212 0.026983075994766802 -0.003830822783794474 0.08201364706641658 -0.09066529015329441 -0.04666543348453976 0.02194779109077476 -0.03894165957362986 0.046369942815366945 -0.03199975197734043 0.07598359879292409 0.035356319274716504 0.052093523166005185 0.0043250237139946515 -0.044391809106495046 -0.08240833122347552 -0.03371257642643487 0.07930586972926007 -0.04122025327562067 -0.00950269612962449 -0.014386089136511125 -0.013308498900622941 0.03037252238966205 0.029381660835861235 -0.02786030408473261 0.05135474378431588 -0.01736608448318257 -0.0059193621186321085 0.04207488234876657 -0.039182079609725536 -0.11078611375029368 0.10209548045292616 -0.03766894619950404 0.06688696920239365 0.05015086057356474 -0.0646741536586623 -0.028782520576422752 0.09681050186934219 -0.0164641850552065 0.040371583736955485 0.02711806383977926 0.11329331366961809 -0.14286420397793295 0.04224346921946087 -0.055371589109901025 0.06091341345927383 -0.03895678978621323 -0.03145263010213098 0.039694907839367015 0.03647427333365515 -0.038064829183943764 -0.06010564571112266 0.03961444064245661 0.004131344021717223 -0.042424140930625256 0.025625954489563656 0.1529593695951479 -0.01174181382355289 -0.04088444634199913 -0.041623884883514095 -0.02435754978884216 0.05057642317887223 0.06330865103408712 -0.27104253571768144 -0.0434474279114722 -0.125723496122431 0.05408045727952467 0.011339251467782481 0.0386950644871557 -0.09773590790131437 0.03695107485325587 0.09713650782322798 -0.0026146304375852638 -0.00079394051443442 0.054265864728622625
-0.08624578477037276 -0.08832073317105675 -0.008925671838203347 -0.013457370282342309 0.08279021099870446 -0.08976140154285411 0.06470975778316232 0.005459831284829878 0.07960460119868755 0.08521324215737616 0.0789784902139595 0.020809548419483997 0.060047582217688474 0.024980436796074132 0.0369924372307448 0.021690250472065055 -0.0550468808820992 0.08205664551487495 0.06053690658835727 0.059288702929800735 0.021798308336757433 -0.03417618871008296 0.06696645965612541 0.03056099939925375 -0.08338672007322244 0.020378775554273972 -0.07744256565282091 0.018898491773710984 -0.03040236122913361 0.01632354126701782 0.0856554435007463 0.09534977326421075 -0.0058725917207046625 -0.08596219319429713 0.09495446620329918 0.06869656413486194 -0.05392379968701423 0.09986332202288317 -0.0015234275865892112 0.08601466257489385 0.04227099389424103 -0.056425089957196924 0.03728850321198809 -0.018780511176815208 0.017865896172791378 -0.05504626108066947 0.06431397245632808 0.00539067883451305 -0.10629427704713264 0.049006753685601916 -0.0659836994353573 0.011648918668900339 -0.020140197929060088 0.042721188918836535 -0.0364610625105908 0.07624624215438572 0.007081302838269482 -0.04542001282344096 0.03362615425895925 -0.07983909460070358 -0.04468954151598614 0.00023865434197356425 -0.16078885899992876 0.04559727317765942 0.11620192405497438 -0.03570107375152307 -0.10092955932229339 -0.06572609407985433 -0.025766667867672094 -0.12099810561689865 -0.081289737649596 0.0164302537852177 -0.018449931937284076 0.019105574264507274 0.03384055375970807 0.03440965782851439 0.00271228663822643 0.08086217712052564 0.006628180180155637 -0.00662456124667988 0.08619654785094792 -0.045145875063777444 0.14643321069166756 -0.07878193709163754 -0.06654640733328708 0.099581402188426 0.026178996919617198 0.00829791017070162 -0.009808010514840444 0.10848117764650862 0.009611918227881261 0.0389664615753596 0.03709504590468079 0.03422115655104135 0.02481300538172118 0.07562529160567139 0.020186823277248276 -0.05146626188300655 -0.050975433607694735 -0.026177859388092983 0.06994905084096764 0.015715253587976416 -0.04872224876525087 0.003239010099566274 -0.0908509495227252 0.0090487917708807 -0.07646943579711703 -0.011653676104696755 0.003500100930120361 0.025123562862737744 -0.04823512121314922 -0.04836062302714952 -0.02156277748824066 -0.049018483310856294 -0.03944059093400304 -0.02727895133073976 -0.09250998083837916 -0.07784763308399628 0.002563345601365176 -0.05995096224310375 0.020166872057884557 0.022570281993201633 0.0354766779524276 0.07476443274852246 0.046062903004502165 -0.02865199449707802 0.1359104984759084
-0.05865417234137174 0.11367415762958161 0.008040035675421426 0.003247347136318799 0.05454260348464359 0.0854725682833985 0.11331033230002055 0.22553431514093372 0.05740087459395562 0.05768536838246394 0.050647124611512793 0.05305828183515945 0.07843455507019598 0.03479171939793542 -0.12218462194520087 0.16467331919625194 -0.023228877309830063 0.18998942793024207 0.02858913728139716 0.08572435527218768 -0.12421418348615604 -0.033857198510649916 0.05154665562096758 -0.05744328878330019 -0.0559536818908028 0.020040197647011773 0.023381173524841266 0.009808941488403018 -0.02948864994700309 0.06948314562122919 0.05893879658216991 -0.03413001380379806 0.016039338214650475 -0.05741967848891787 -0.07399502616705132 0.04129669713262308 -0.10086240598469377 0.06847548181341681 0.03390380381903019 0.057089646776725664 0.0167538800406314 0.14823929196650648 0.02143737846613958 -0.02611885592096113 0.1430287143302789 -0.15450587870774607 0.0700698953823268 0.02132626129284989 -0.12387868345695777 -0.02444703839796953 -0.034651420951608475 0.030572419262349576 -0.0039306369828730125 0.00950173213800203 -0.015580576734821766 0.021286753784233396 0.1732183966338607 -0.010411841254028427 0.028325251660205473 -0.05572328283356177 -0.09920128429160247 0.01435896742574887 -0.1964942000891756 0.026386184836397396 0.06295352125194995 -0.0003172562814717228 -0.06854221347792995 -0.018977980041476553 -0.016017067644335428 -0.17494060820970722 -0.05415501048711524 0.03711973532685364 -0.027158613412030713 0.05647330602070038 0.014307731411035737 0.029504818194000283 0.03674300042644233 -0.14146569851106716 0.015563358862672478 0.0438263871640052 0.05787368821271573 -0.024610696740874138 0.1336789745801909 -0.023719397349395533 -0.04056654133680629 -0.013084554881415467 -0.0064729287932426 -0.05038040557386838 0.037878908272442 0.0526294374441856 0.06713323610752693 0.016594561318330734 -0.02943022798187129 -0.01661799200681124 0.22676794607364759 0.048143505040727584 0.08680427216565968 0.049033441200027686 -0.0269338234312888 -0.02491143302563918 0.0442892632105888 0.013970584291516052 -0.022161951624490583 0.07894746048188492 -0.16134550198374417 0.037887492731200956 -0.04838736239842542 0.04144741202956314 -0.2219419358424397 0.0375558129304493 -0.02604687308380559 -0.021510506294289463 -0.009963295111976371 0.026731664380728784 -0.20214189434312538 0.2837865975824442 -0.06201272705673744 0.12351896974276498 -0.06661617459168002 0.030240014541051442 0.03768499407861724 0.15582793722629718 0.03412324885758224 -0.008793994250587023 0.11820251310745411 -0.05351684678262111 0.08985968926978907
-0.03952954765078778 0.09351384345831677 0.059442091597419436 0.051049407397387 0.04158258014706418 0.22021204846888467 0.11943135840590711 0.11228965036880514 0.10504409038453431 0.03873770412680529 0.04122567322943106 0.11294877233392188 0.039252543969887935 0.03317660243054898 -0.022977113477478127 0.13241938969657396 -0.05196157624274362 -0.14403053545005198 0.04712262874725994 0.1343640631372399 -0.007022918898264831 -0.06541102177618227 -0.18372838208677342 0.05643809765583417 -0.038458701783969866 0.08470339499474336 -0.03619235661820642 0.04908109218049701 -0.036387983534489896 0.11697783780046767 0.04037403776557906 0.027425518287463885 0.03798532032730751 -0.038407250848153406 -0.0843056982018362 0.04314895730024043 -0.072439499247547 0.034083811541252895 -0.06538699456213558 0.038525456739698594 0.05069497349966126 -0.06476357662477956 0.0566200636911759 -0.013827505907740949 0.077997586146621 -0.03917483770417211 0.062216306324577995 -0.0015141958334645028 -0.058419601022406814 0.06247724185685197 -0.04360585569926247 0.06001621237889867 0.0424945076136955 0.010059684183543532 0.011397991703997443 0.09649615939093825 0.0058281020933471485 -0.04646085451231254 0.04063665361029421 -0.03934115145842725 0.04000243465176346 -0.05655783198085256 0.056223960868985144 0.05126841458391014 -0.03542944973719327 0.003006992425860524 -0.03347251763781919 -0.08542470910205628 -0.05344834776856106 0.0022153914987337944 -0.03919580382877991 0.008620579470592608 -0.050137853296206895 0.026267719402710565 0.018632492558628182 0.05710588664382723 -0.00209434186311523 -0.20095166879512538 -0.028277833793682133 0.04550310009677616 0.03992902028096405 -0.054260653943923466 -0.22918869737029474 0.26093694474534485 -0.04314648188010918 -0.032887106141614164 -0.05290106304421604 -0.17626827096120573 0.04445299179989645 0.03677314468889316 0.08416626093960218 0.05321452093315268 -0.04537063612599145 0.05654878780874936 -0.049507973246611936 0.04325952729761072 0.0009178091367771353 0.23123788378183346 -0.04734965603320133 -0.0642755721583858 0.046136327164622265 0.0719441819164561 -0.040893824421215474 -0.012638926264962875 -0.022358418240047785 -0.08058906547366991 -0.04173765618813283 0.1011988904490344 0.03342478446266455 0.034101121228304 -0.04898755484146745 -0.04810993386794762 -0.018604541232907196 0.17432096786954376 -0.0511886537807304 -0.11536719126083951 -0.0383277379760507 0.04557043053345835 -0.00035544778914610426 0.12603081312695558 0.04511399427241753 -0.0016128113771629324 0.06017220364356727 0.034649111601526394 0.00689047941444804 0.013232124133441398 0.035336067309801746
-0.05640012109415587 0.25846854273696945 -0.10148613488813248 -0.1374180925449523 0.05944766374938342 0.510939923241949 0.15227502858928071 0.14316858353393455 0.2380083916124932 0.05884321064107036 0.05700526600612342 0.09001919527616428 -0.09096084351003235 0.07108631763816527 -0.052888605503124984 0.11189471753749228 -0.06589668778053945 -0.10796267505951354 0.06198173901516706 0.0806374714061246 -0.09867488428946852 -0.09656621749166132 -0.25548875092642137 0.03287698537912386 -0.05898721569536646 0.14655194179367245 -0.1125649939522847 0.11093722542370835 -0.08712234463151325 0.022512400431137572 0.05783756003216026 -0.1527276943663758 0.06908116546359656 -0.05615253143547931 -0.3388162847586893 0.05514218642281968 -0.1388261564774918 0.059079896114360424 -0.08845743331607964 0.055339399622649936 0.07392883360167209 -0.07525332993312318 0.08167082582492001 -0.04501093556018489 0.08322942871090849 0.058009404780659544 -0.030292834158464673 0.08070770165918374 0.3964606484429477 0.0587742065130878 -0.0565352972883442 0.10743872969770792 0.03213641244472547 -0.07378296498877591 0.06462488893385426 -0.07564235342176454 -0.2028566569458443 -0.061454777630998096 0.06523086584935872 -0.05536364426605441 0.37022386208676333 -0.1501509769854375 0.25155732923447693 0.06593726285043487 -0.15008894950954743 -0.20245699035716494 -0.06046033090093207 -0.24762147647778499 -0.08537087915493104 -0.04620602733667084 -0.058170124345449534 0.04472733461404691 -0.10431355290280057 0.061001211885710546 0.01031993364470614 0.08913024077187112 0.037625838858657105 -0.38284943708612923 -0.10156605857728103 0.1285471511588372 0.05771062877906065 -0.08137469400647374 -0.40227483442667744 0.3811266213313781 -0.05541236371697882 0.021711638800467066 -0.2491878663428574 -0.24378673094188968 0.08568284727251278 0.057502153897327955 0.23237593235638362 0.0904310061192798 0.05501584846210994 -0.07222121810223134 -0.03607277724928006 0.05592385064957825 -0.12565813486461735 0.49746240943743814 -0.06395617010384358 -0.10050547024244887 0.0583748071445092 0.1338190684639955 -0.05993105044927412 -0.06632923286219675 0.04354374964280708 -0.36126269418633783 -0.05560433041917564 0.01590556273044744 -0.028752307005442138 -0.0858749673261796 -0.07388880905596153 -0.06989929709784433 0.041678428056800776 0.25169294540922144 -0.16939970822384184 -0.018044494677842176 -0.057810357786222975 0.18780017358061052 -0.026329930149615963 0.15172185080123102 0.1353886893784152 -0.08027613664548659 0.12421439456395214 0.06788860044114052 -0.36007648149030846 0.05442737410733242 0.08537986335573171
-0.06663430297542305 -0.05244765181894201 -0.2781255849087982 0.08418387795006343 0.06698706315001046 -0.06953063898439589 0.009635262657402388 0.25256379810715324 -0.2961818800683189 0.06471246274009405 0.06752530938851614 0.05986372781427748 0.008079546572817328 0.07337790374058137 0.02586788922965992 0.07137170090926377 -0.057607995919229646 0.027138582566354506 0.05879690093120611 0.06757866847171475 -0.03198903522034635 -0.043274773824935886 -0.010439585959166598 -0.2601490894385405 -0.06569864796480589 -0.17652456241898107 0.232798600291365 -0.03539098680358673 -0.041091599645356684 0.015903082656726766 0.0651925185524275 -0.14707731896166262 0.06497724926404147 -0.06677153578314807 0.0010892125538283272 0.06648755313256643 0.21452003305814665 0.07025082533136903 0.08733044222272784 0.06590957485520331 0.06764853875649317 0.30984506291008285 0.07140191871836256 0.015255166957720747 -0.11085152949805321 -0.18545251916119304 -0.009600865443808915 -0.05665659419502722 -0.26760888022471024 -0.12888691434160016 -0.06742585923147203 0.05376583438540895 -0.03925464348730173 0.18088511286812023 0.10428490989324493 -0.0676749941183538 0.3817251020590625 -0.08321922586351446 0.07372921044147326 -0.06596306119114717 -0.05373212770805847 0.02306295844737953 0.18201504315973577 0.07586817487966648 -0.0719656731248185 0.008259975799792658 -0.07179592491434872 0.18542263787576124 -0.09196774665463286 0.10939547289379897 -0.06501816768522597 0.04899594036587739 -0.016016392480115573 0.058686397102759545 0.022748193113010524 0.0658437745523165 -0.14451123903720967 0.009664165849298616 -0.020869599878258902 -0.13973286917077257 0.06498581087829838 -0.042929971993643234 -0.001755060532125759 -0.018772391473992817 -0.06613741598668295 -0.2814077709070998 0.2598266598717596 0.11663709701122336 0.07264302135757626 -0.25966069674585396 -0.17033822931218964 0.04595031749901477 -0.15278072601003206 -0.09184565314986107 0.00658502649246381 0.0631454203192361 0.07113512925240464 -0.05926253771944322 -0.07394494015093248 -0.07149706068197278 0.058408656881104255 0.006420193756576569 -0.06753623064803589 0.15634680194139552 -0.07578784328720516 0.17431576672404084 -0.06453820824306442 0.03147437470877019 -0.15829432567025115 -0.0007926485869274036 -0.05653941113147707 -0.0589166897416517 -0.18291918177280217 -0.06648607472335102 -0.015857468647671513 0.29744333086087466 -0.06627678492492677 0.09786179129798073 -0.03813720988185361 0.059410462251126624 -0.16611714005735745 0.15768843716539213 -0.1722044722782124 -0.019513833865533133 0.20914698230969272 -0.10964729105281504 0.08016451284485847
-0.03373764772854906 -0.1635866375557982 -0.04368055784371813 0.1621827893698046 0.0314303589105078 -0.28653176120477875 -0.046361331925840576 0.06463922038753424 -0.2389964204878132 0.030897966537663756 0.030443445382850414 0.020479177089173576 0.07683534680405339 0.011712165523797214 0.041477888812702896 -0.043315850684873876 -0.007344141033779862 -0.08061144799657649 0.017892644612544997 0.0490441325902782 0.03716077194420913 -0.014518940154160477 0.09004254473139275 -0.04974618470522821 -0.0318705413360437 -0.08013895691815996 0.09139046579888668 -0.04615848103417313 0.010849552142890555 0.038889343784393404 0.0326102775838306 0.13375488450983927 0.03517355504388938 -0.034904844025339554 0.1911280773255601 0.02640171908093895 0.14738518594980782 0.041424982929641814 -0.01916309021279922 0.033779771217693856 0.0018770663249714815 0.14214208661184893 0.004955179851780325 0.016572861072128794 -0.03508808352595355 -0.14243304497076414 0.07725175467191057 -0.1283305532693728 -0.48776215638528597 -0.17285505969454462 -0.02425557214014866 -0.008829437453169742 -0.01948167139219941 0.09766047980195221 0.0748125976243343 0.05528985983647513 0.2918827543109278 -0.018609148674106023 0.008114556188496738 -0.030090479251900067 -0.2464749245327801 0.05247175578770696 -0.1917132699985158 0.011218004010116727 0.08026518610479248 0.16077015603194794 -0.04377529147117055 0.23052341829601916 -0.016538566833532557 0.010345772789760009 -0.029214357932441135 0.007652955255017823 0.03971301852546418 0.004422714667038239 0.07600952091796144 0.012834759169894003 -0.07979150317253149 0.20115593136076756 0.002749951052115559 -0.11151855568956301 0.032028493310208496 0.005351515442903143 0.13656524808666703 -0.11835753285748722 -0.02182015028998373 -0.1496732747830457 0.20220923290982315 0.09274904098211692 0.04528613721156292 -0.067419299776963 -0.174884465995167 -0.00773924204922933 -0.0797167668026897 0.058323025771103335 -0.06659327482591812 0.02646742198393147 0.035586286243438105 -0.28416647468196726 -0.015192499104327161 -0.02261683874183172 0.021329604854447577 -0.028868522941901256 -0.007581723238267254 0.09436940837245322 -0.05536867557551209 0.35767074059322185 -0.028203351221451962 0.04092052075528063 -0.015099280607208863 0.004746958646418931 -0.0033320175538276396 -0.006490626517042813 -0.10820872256305693 -0.08715191568827674 0.03904049316709585 0.04745953951342565 -0.035458192344369706 0.00906624967502087 -0.01321424623970587 -0.11639419648780293 -0.13377220292844888 0.06801901711494132 -0.13467801396679574 0.008628185041867407 0.3453396258261294 -0.0887440836711696 0.05625995310099313
-0.01328016082272762 -0.08604643357611051 0.02634501274065527 -0.008702469988282556 0.012645692680461649 -0.03960236866067963 -0.0036088321017480407 -0.04710717178338282 0.01025004050869143 0.011762111326057048 0.011228647441343107 -0.01141192027698677 0.04094662809014624 -0.00621857017267396 0.025675707965908148 -0.013495727710812656 -0.011796126338542419 -0.07308677089951504 0.012770854116976631 0.037861490211466814 -0.021206507977840842 -0.014881963379574328 0.009519771183513786 0.045491131563046926 -0.012672833505263641 0.033305698972594895 -0.05548342043543452 0.025834318307082743 0.0005307070176142803 0.005697007538850944 0.013556622869288066 0.039405340170448354 -0.022047811394662116 -0.01294646209988078 0.09611474456667617 0.010269016133969303 -0.030749914565146856 0.013921217098060061 -0.024785263041301426 0.012822185921908097 0.0088163945810485 -0.11819113471344425 0.006235877812681914 -0.011321568431746176 0.008897117933238398 0.025950521711510455 0.07354930885966494 -0.01970514664942753 -0.04175928137375587 0.06531694676812 -0.010473129988480627 0.00752782340361497 0.10312276538430414 -0.020530234038655403 -0.01767371767521065 0.09563374484342374 -0.03345976888793509 -0.0084673339960449 0.0024928846580295058 -0.0104510920797859 -0.03416565589039247 -0.025195198028255487 -0.011429507085269781 0.0057939493430867114 0.06111712273261546 0.03872123128301174 -0.013682983402066461 -0.0071945929498347634 -0.004528454032619754 -0.0005281296596889823 -0.01223599504625323 -0.0017657880210477433 -0.008913653004673104 -0.018333599893081247 0.011219496492321644 0.005689698465004926 -0.01765289227522381 0.04803403150783678 0.005980399327087928 -0.0016025693427981803 0.012356085543400406 -0.0113621171230079 -0.00014967535148769883 0.0373124659561689 -0.007803339071061871 0.055945027865972045 -0.1138449132583929 -0.012300253989473545 0.010718312573821739 0.09871891059807036 0.055565658331133916 0.011266016191260145 0.03719351620870193 0.04617728139320176 -0.07238814156904834 0.012102317852483835 0.0059932259965794436 -0.023806083068775706 -0.007115128648017677 -0.009761879709065356 0.010707345761975559 0.02350196301935947 -0.006138595275144552 -0.02110317280799444 0.0005008678272882081 -0.009374177224628725 -0.012921370206936192 0.042418527899283326 0.08055906363533985 0.04002459827774237 -0.008178893283641273 -0.011941310616794055 -0.013631600968224864 -0.029375271823991925 0.06581952125040082 -0.1477513841980028 -0.01285734751489929 -0.0681118655555148 0.020261249001282892 -0.048230919994282445 0.04658838655818083 -0.03484981312924907 0.022888941762404164 0.01617661370874999 0.013825893331583882 -0.030406931894721188 0.013373582564520006
0.00027106820730093896 0.00013016106106415238 0.0007784339727135545 -0.0006088315815437628 0.00034030291971968193 -0.0006172196556298122 -0.0007282589846369549 -0.0009506444104005427 -0.0003558472939372987 5.053734743430227e-05 -0.0006548687503645976 0.00030855804231054635 -0.0006339515780433905 0.0005085068819776755 0.0006358017782304491 -0.00043986325297967884 0.00046134784145504017 0.0004191319643794835 0.0003746591985319186 -0.00038029989418387827 -0.0009283751530945976 -0.000601822423527156 -0.0009473159083989944 -0.0005819399790468259 -0.0005970367405425409 -0.0001702182571819362 -0.0009872459820554735 -1.942925059327926e-05 -0.000704615386678606 0.0002976846007903861 0.0008653673343907424 -0.00028171318016392724 0.0005567062819702077 -0.0008232964361164859 -0.0005771404793156988 -0.00033177622621940865 0.00014505357702263564 0.0003878758021864674 -0.0003980557082863045 -0.00028471613608187956 0.0005228761587306979 0.00029838047274138055 -0.00017192815642556284 0.00017924533922483352 -5.9110590751177924e-05 0.0006570536483855103 -0.0005909936868098121 -0.0007582627607800365 0.00035488759781864584 -0.0008325461678070021 0.00036384887796278814 -0.0001604465698217323 -0.0005127732583265422 2.513178854144293e-05 -0.0008041736976289877 -0.00018460810043667824 0.0008206018674756688 2.4436017557865394e-05 -0.00022856559227658728 -0.0003134633539472575 0.0004925579235605202 0.0009755831606953372 -0.0003089070411610473 0.00021870389111599284 -0.00012540415272143952 0.0002709996173547412 -9.079542598095533e-05 -0.0006515931386241948 -0.0003805300976984161 0.0007801147512399814 -0.0005294241169215715 -0.0005664975235914176 -0.0007473841843771967 -0.00037505598731018934 -0.000372415874954414 0.00019837287521129 0.0003633665393487479 -0.0005835801184024324 0.0009524148558435824 -0.0002423951075447221 -0.0008476864536614841 -0.00012814695642213668 -0.0003349323747369663 -0.0006908337595675107 -0.0008279416884823592 -3.1680110604010835e-06 -0.0003318060333719901 0.00014765659181630183 0.000673028633914198 0.0006862038513059303 -0.000921358015349499 0.0004974885438259428 -0.0008976121533885507 -0.00018906522086998884 0.0006720951299212124 0.00017526965295584524 0.00034262522172850214 0.00014100277414520377 0.0003250543807556713 -0.0008369657831226701 -7.912027635927424e-05 8.88738845669034e-05 -0.00018789928862067028 0.0006038377473166706 0.0003084008308836036 -0.0004387173094437724 0.0005921936392640553 -0.00040956851792527235 -5.441535429206708e-05 0.0007424814557987413 -0.0009887381961583026 -0.0008068049886111193 -0.00024156959241434172 0.0008607899620358154 0.0001012363726992831 -0.0007575396353388202 -0.0005633495064553836 -0.0007406252526121406 0.0009231798334493582 -0.0007685507430641121 0.00028759492233705283 0.0009862780103712687 0.0009198392171518007 -0.0005869287856211134 -0.0004718338295965252 0.0007544990290691827 -0.0006721921114407263
-0.04150746718688677 -0.05968871583769455 0.04589106687093268 0.08928316706155848 0.04229110447461488 -0.009172009555575891 0.025081834791181295 -0.0820201182448521 0.08515779490960025 0.04042380715291462 0.04114211799532923 0.05259724692425492 0.051628926290706145 0.009120732501991679 0.11502818423561842 -0.03134752980601537 -0.04532042446933767 -0.18652090243368136 0.043643033298157496 0.05849976582932271 0.17832970365670497 -0.028269799853966104 -0.09920169455029394 0.10271522315555325 -0.04103911699548019 0.054249223304656764 -0.09085537084921298 0.024994756353885157 -0.016702825790659133 0.04248697792313524 0.040532165231670976 0.1395842276986054 -0.013896939062420222 -0.042200709985452105 0.10428669387667258 0.04086660229042867 -0.0009452200514207374 0.04421657604854539 -0.07106111268442804 0.04377488769410019 0.04019223720934717 -0.17345316549826229 0.036402992609939414 0.005817452258882814 -0.04891936760273552 0.04950888278984854 0.05215235148109408 -0.01809205871926976 -0.07137733844324744 0.04889650319904145 -0.042348825800835856 0.011215666748262054 -0.021697232779338285 0.02811223058904688 -0.0038569117248034067 0.08052204085003443 -0.0892815024001388 -0.04728723433367607 0.02184395838004797 -0.038998287838356134 0.047284406155825555 -0.0322319394834003 0.07559472671284286 0.03513139947904048 0.053021493682590515 0.004476140002516146 -0.04323327889748136 -0.08127850082016672 -0.032671125080001445 0.07869532934202883 -0.04159908585300514 -0.009869878230675894 -0.01461504410320033 -0.01286478398726112 0.02925175187755126 0.02963030844954753 -0.029241798056416028 0.051045146122607764 -0.015805295619704784 -0.00458080646777081 0.04159744010109136 -0.03840892739063558 -0.11049753293556677 0.10195764508964439 -0.03879997692821183 0.06678481271955683 0.04867751438293591 -0.06505794315140494 -0.02924078098837003 0.09596801999705838 -0.016272224334077524 0.040379605429060675 0.02595145928064165 0.11231573601275208 -0.14462345506956095 0.04252712801696919 -0.05431504907861536 0.060605793700989535 -0.03947033078002809 -0.03257625938336704 0.04003153373273467 0.03534679940901053 -0.037520283972094476 -0.05998191748577743 0.04031304615066703 0.0031731827967971162 -0.04213848445643146 0.02407411257393922 0.15421268933777138 -0.012893659574603936 -0.04041267458765442 -0.04077053889328961 -0.023648070233270587 0.049917516201258075 0.06318803278470307 -0.2709072853070696 -0.04164657794380051 -0.12540643965727263 0.053072683426598176 0.012726754582043205 0.03919795196614712 -0.09786648008183957 0.03703189549068102 0.096012199400948 -0.0035306949025428382 -0.0007076135210336815 0.05247252501368451
